<?xml version="1.0"?>
<MethodSetup Method="MLP::MLPBNN">
  <GeneralInfo>
    <Info name="TMVA Release" value="4.2.1 [262657]"/>
    <Info name="ROOT Release" value="6.06/01 [394753]"/>
    <Info name="Creator" value="pseyfert"/>
    <Info name="Date" value="Tue Mar 29 11:40:14 2016"/>
    <Info name="Host" value="Linux robusta 3.16.0-4-amd64 #1 SMP Debian 3.16.7-ckt20-1+deb8u1 (2015-12-14) x86_64 GNU/Linux"/>
    <Info name="Dir" value="/home/pseyfert/coding/tmva-reader"/>
    <Info name="Training events" value="2000"/>
    <Info name="TrainingTime" value="2.34414301e+01"/>
    <Info name="AnalysisType" value="Classification"/>
  </GeneralInfo>
  <Options>
    <Option name="NCycles" modified="Yes">600</Option>
    <Option name="HiddenLayers" modified="Yes">N+5</Option>
    <Option name="NeuronType" modified="Yes">tanh</Option>
    <Option name="RandomSeed" modified="No">1</Option>
    <Option name="EstimatorType" modified="No">CE</Option>
    <Option name="NeuronInputType" modified="No">sum</Option>
    <Option name="V" modified="Yes">False</Option>
    <Option name="VerbosityLevel" modified="No">Default</Option>
    <Option name="VarTransform" modified="Yes">N</Option>
    <Option name="H" modified="Yes">True</Option>
    <Option name="CreateMVAPdfs" modified="No">False</Option>
    <Option name="IgnoreNegWeightsInTraining" modified="No">False</Option>
    <Option name="TrainingMethod" modified="Yes">BFGS</Option>
    <Option name="LearningRate" modified="No">2.000000e-02</Option>
    <Option name="DecayRate" modified="No">1.000000e-02</Option>
    <Option name="TestRate" modified="Yes">5</Option>
    <Option name="EpochMonitoring" modified="No">False</Option>
    <Option name="Sampling" modified="No">1.000000e+00</Option>
    <Option name="SamplingEpoch" modified="No">1.000000e+00</Option>
    <Option name="SamplingImportance" modified="No">1.000000e+00</Option>
    <Option name="SamplingTraining" modified="No">True</Option>
    <Option name="SamplingTesting" modified="No">False</Option>
    <Option name="ResetStep" modified="No">50</Option>
    <Option name="Tau" modified="No">3.000000e+00</Option>
    <Option name="BPMode" modified="No">sequential</Option>
    <Option name="BatchSize" modified="No">-1</Option>
    <Option name="ConvergenceImprove" modified="No">1.000000e-30</Option>
    <Option name="ConvergenceTests" modified="No">-1</Option>
    <Option name="UseRegulator" modified="Yes">True</Option>
    <Option name="UpdateLimit" modified="No">10000</Option>
    <Option name="CalculateErrors" modified="No">False</Option>
    <Option name="WeightRange" modified="No">1.000000e+00</Option>
  </Options>
  <Variables NVar="4">
    <Variable VarIndex="0" Expression="var1+var2" Label="myvar1" Title="myvar1" Unit="" Internal="myvar1" Type="F" Min="-8.14423561e+00" Max="7.26972866e+00"/>
    <Variable VarIndex="1" Expression="var1-var2" Label="myvar2" Title="Expression 2" Unit="" Internal="myvar2" Type="F" Min="-3.96643972e+00" Max="4.02589369e+00"/>
    <Variable VarIndex="2" Expression="var3" Label="var3" Title="Variable 3" Unit="units" Internal="var3" Type="F" Min="-5.03730011e+00" Max="4.27845287e+00"/>
    <Variable VarIndex="3" Expression="var4" Label="var4" Title="Variable 4" Unit="units" Internal="var4" Type="F" Min="-5.95050764e+00" Max="4.64035463e+00"/>
  </Variables>
  <Spectators NSpec="2">
    <Spectator SpecIndex="0" Expression="var1*2" Label="spec1" Title="Spectator 1" Unit="units" Internal="spec1" Type="F" Min="-9.91655540e+00" Max="8.67800140e+00"/>
    <Spectator SpecIndex="1" Expression="var1*3" Label="spec2" Title="Spectator 2" Unit="units" Internal="spec2" Type="F" Min="-1.48748331e+01" Max="1.30170021e+01"/>
  </Spectators>
  <Classes NClass="2">
    <Class Name="Signal" Index="0"/>
    <Class Name="Background" Index="1"/>
  </Classes>
  <Transformations NTransformations="1">
    <Transform Name="Normalize">
      <Selection>
        <Input NInputs="4">
          <Input Type="Variable" Label="myvar1" Expression="var1+var2"/>
          <Input Type="Variable" Label="myvar2" Expression="var1-var2"/>
          <Input Type="Variable" Label="var3" Expression="var3"/>
          <Input Type="Variable" Label="var4" Expression="var4"/>
        </Input>
        <Output NOutputs="4">
          <Output Type="Variable" Label="myvar1" Expression="var1+var2"/>
          <Output Type="Variable" Label="myvar2" Expression="var1-var2"/>
          <Output Type="Variable" Label="var3" Expression="var3"/>
          <Output Type="Variable" Label="var4" Expression="var4"/>
        </Output>
      </Selection>
      <Class ClassIndex="0">
        <Ranges>
          <Range Index="0" Min="-4.9435877799987793e+00" Max="6.3994679450988770e+00"/>
          <Range Index="1" Min="-3.9664397239685059e+00" Max="3.1126663684844971e+00"/>
          <Range Index="2" Min="-2.7864599227905273e+00" Max="3.5011172294616699e+00"/>
          <Range Index="3" Min="-2.4271266460418701e+00" Max="4.5351858139038086e+00"/>
        </Ranges>
      </Class>
      <Class ClassIndex="1">
        <Ranges>
          <Range Index="0" Min="-8.1442356109619141e+00" Max="7.2697286605834961e+00"/>
          <Range Index="1" Min="-3.2550826072692871e+00" Max="4.0258936882019043e+00"/>
          <Range Index="2" Min="-5.0373001098632812e+00" Max="4.2784528732299805e+00"/>
          <Range Index="3" Min="-5.9505076408386230e+00" Max="4.6403546333312988e+00"/>
        </Ranges>
      </Class>
      <Class ClassIndex="2">
        <Ranges>
          <Range Index="0" Min="-8.1442356109619141e+00" Max="7.2697286605834961e+00"/>
          <Range Index="1" Min="-3.9664397239685059e+00" Max="4.0258936882019043e+00"/>
          <Range Index="2" Min="-5.0373001098632812e+00" Max="4.2784528732299805e+00"/>
          <Range Index="3" Min="-5.9505076408386230e+00" Max="4.6403546333312988e+00"/>
        </Ranges>
      </Class>
    </Transform>
  </Transformations>
  <MVAPdfs/>
  <Weights>
    <Layout NLayers="3">
      <Layer Index="0" NNeurons="5">
        <Neuron NSynapses="9">
          -1.4637399801974424e+00 9.7357405205890007e-02 3.2816944265181246e-02 -9.7052389538497397e-01 1.0604528847409389e+00 -2.2381390923936970e+00 -4.8449235157058768e-01 3.4057360287225852e-01 -4.7790325057596228e-01 
        </Neuron>
        <Neuron NSynapses="9">
          -7.6508835844472012e-01 -4.3465029167623077e-02 -2.7727396899270309e-02 -8.2912023232281015e-03 -9.4890097312196031e-01 3.4119027940593447e-02 8.1833561913556410e-02 -1.1564222868896988e-01 6.1493501598160895e-02 
        </Neuron>
        <Neuron NSynapses="9">
          -9.2720422075034774e-03 4.1524780093505513e-02 1.8162975416069340e-02 -2.2611294570808180e-01 -1.2767025315746711e-01 -3.0357985539106314e-01 -1.3898769305433623e-01 9.1383346182555905e-02 -1.3454188858138794e-01 
        </Neuron>
        <Neuron NSynapses="9">
          -8.6290867119046522e-01 -3.2353595923469841e-01 -1.7286785750808484e-01 1.1993514479636107e+00 1.5501455804046074e-02 1.0519466469917980e+00 7.4219321215718137e-01 -4.4662540973150167e-01 7.3923798175254740e-01 
        </Neuron>
        <Neuron NSynapses="9">
          3.2536412453117641e-02 9.7280259908988419e-04 3.4634913194614387e-04 -1.0949853269687790e-02 -1.4948417068596695e-01 7.7512641347300144e-03 -3.6309025569404877e-03 2.6810337962281639e-03 -8.3246731485611212e-03 
        </Neuron>
      </Layer>
      <Layer Index="1" NNeurons="10">
        <Neuron NSynapses="1">
          -5.0581543642517985e+00 
        </Neuron>
        <Neuron NSynapses="1">
          -1.8182815314648317e+00 
        </Neuron>
        <Neuron NSynapses="1">
          -8.3078286611711993e-01 
        </Neuron>
        <Neuron NSynapses="1">
          8.8153035701799247e+00 
        </Neuron>
        <Neuron NSynapses="1">
          8.1618969259587750e+00 
        </Neuron>
        <Neuron NSynapses="1">
          9.7299697517967374e+00 
        </Neuron>
        <Neuron NSynapses="1">
          4.8365255861213345e+00 
        </Neuron>
        <Neuron NSynapses="1">
          -3.6040870283550008e+00 
        </Neuron>
        <Neuron NSynapses="1">
          4.9986062581980670e+00 
        </Neuron>
        <Neuron NSynapses="1">
          -1.9287844299876646e+00 
        </Neuron>
      </Layer>
      <Layer Index="2" NNeurons="1">
        <Neuron NSynapses="0"/>
      </Layer>
    </Layout>
    <InverseHessian NElements="3025" NRows="55" NCols="55">
      <Row Index="0">
        9.1128286759260000e+00 1.6522967041238530e+01 -6.1591487167579544e+00 3.7621921410774108e+00 3.1767834629260712e+00 3.6939997464551193e+00 -1.3920735416847106e+02 -7.7006700068137803e+00 1.2975801533702710e+02 -6.3956687864299278e-01 1.3182123988904291e+02 -6.3015922645737810e+00 -1.3369182940604988e+01 1.7237500068685727e+00 3.5666344375415244e+00 -1.5206612706356370e+02 2.2589732388637778e+01 2.3126648465489501e+02 1.9290111057554660e+00 5.0608714073817936e+01 -7.5754009907634384e+01 2.6079208695252287e-01 1.0112078345441993e+00 6.7219668448800740e-01 -6.1840031956111510e+00 -4.5922551371450862e+00 8.1981459364786478e+00 -1.0016181112069866e+01 -2.1415640716610028e+01 -2.5945394264329508e+01 1.3880379800197421e+01 -3.1265046655305389e+00 7.0457269949125489e-02 -1.5458992147581191e+02 -4.7751284526436322e+01 7.8135352192881214e+01 5.3215168767356047e-01 -1.3315958692455313e+01 -1.9758080360355116e+01 -2.9585894496450971e+00 2.0815899313575481e-01 4.7301890962771648e-01 1.0939009336461215e+01 1.9200830245181919e+00 2.7161639094634218e+00 1.1424700081080445e+01 4.1695764367220534e+00 8.4505842507770019e+00 -3.5568208981935356e+01 3.1762954310081430e+01 3.8712840511086398e+01 -1.5123095668985407e+00 8.8034201103046019e+00 -1.6680244622940563e+00 -7.4362736146356895e+01 
      </Row>
      <Row Index="1">
        1.6522967824055083e+01 4.4152397208907129e+05 -1.7265576643488067e+05 -2.5902608438418370e+04 1.5597789801093785e+02 -1.3306293338962039e+03 4.8035405996002279e+04 2.4376488753619487e+03 1.1898750459344217e+05 6.0091203630828375e+01 -8.1373546007301411e+03 3.3116133898621112e+04 5.5066656878085932e+03 -1.8219962694540885e+02 2.3764406134176120e+01 6.0244214857690626e+04 2.4937456771121186e+04 -4.7123949885670503e+04 -2.1295906066214002e+01 3.0875158759446094e+04 2.2945455810301268e+04 -5.0448619212575122e+03 -4.4280835536842623e+01 -2.6418564718664123e+02 3.3350359851572895e+04 -1.7936626578774190e+03 -1.2525189167820423e+04 1.1611382459213706e+02 -3.0560006007881439e+05 -8.8071401144747448e+04 3.3100655089361528e+04 1.7338032105713864e+01 7.5486444247872032e+02 -8.7436284266706236e+04 2.0593786613004486e+04 -7.0824373286268354e+04 -9.8630232685183596e+00 -3.0086973098448998e+03 -5.1223374422998231e+03 -3.0719220565448722e+01 -2.2120155069589877e+01 -1.2052926302709629e+01 2.3783412257129412e+03 5.4398285782232979e+03 -1.5788003722447565e+03 -8.0127351040542999e+02 -9.2722835591119801e+03 -5.0546347671481553e+03 -1.5601004814615764e+04 -4.7773494652229747e+03 -1.8954297787626067e+04 -2.2941878348976166e+04 1.8119115110568640e+04 -2.2813830842345662e+04 5.7587972212622408e+03 
      </Row>
      <Row Index="2">
        -6.1591489345434844e+00 -1.7265577588541835e+05 8.5799313936452870e+05 -1.4278066787075661e+04 -5.8063113920154819e+01 3.7139281019496110e+02 -1.5368844147373435e+04 -3.0920251299468277e+04 1.0237528505745916e+05 -7.9849110506351735e+01 4.8191691627888606e+04 -3.0420966653068255e+04 1.6336249035395836e+03 -4.0408879006808240e+02 8.2372314206578601e+00 -1.7679405667390663e+04 1.0111701431052716e+04 3.1898291811259704e+04 1.3430626037752518e+00 2.1396297524028414e+04 -1.8204257599597186e+04 -4.8445417460484532e+03 -2.8260552613824296e+02 3.0775831831101755e+01 3.3824256092929943e+04 1.9120736301924662e+04 -4.9053094704364084e+03 -1.0220332697653446e+02 -6.0893857339189562e+04 -9.5396303261136170e+04 2.7827474821555159e+04 6.6735789371032661e+02 -1.1814087754058164e+02 -1.0478214933026840e+05 -7.5510669787394290e+04 -4.4491838918869558e+04 -8.1937487126312778e+00 1.3372974028814115e+03 -3.8055366992552063e+03 -8.1383532552411998e+02 -9.7939070189987277e+01 -2.0265514294579042e+01 2.9891125190904710e+04 1.4261276446662307e+04 -2.2376833702352669e+04 9.9077020739167347e+02 -2.3661277868846646e+04 -2.0931946976286843e+04 -6.9007348102882970e+03 -1.1433568342562168e+04 4.6759046948699925e+03 5.4336622006350153e+03 -6.1922978120691423e+03 5.5149096201084321e+03 2.4324357383710376e+04 
      </Row>
      <Row Index="3">
        3.7621920102552471e+00 -2.5902607688235650e+04 -1.4278067639067986e+04 4.3747654301219927e+03 -2.8386610449503014e+01 1.1192301509204619e+02 -1.6511016128081825e+04 -1.6776804389015331e+04 -1.3941193995913120e+04 -3.8749844605205226e+00 -2.6188622916868298e+03 -2.2972114916954838e+03 -7.0737622502700526e+02 -1.6221312798958820e-01 -4.9819734481040090e+00 -1.6814078947217247e+03 -8.8160713617906367e+01 1.9611462948568114e+03 3.0888171853136259e+00 3.8797352937016058e+01 -4.4308799487160886e+03 1.0511698742077838e+03 -1.0983133957978929e+01 1.6284392617066370e+01 -5.2714600513959485e+03 -4.0705981314213313e+03 -1.9450923936279068e+02 -5.2905187554805693e+00 1.4123108182248783e+04 6.2266240260565337e+03 -6.0115270365330098e+03 4.1996623277991930e+01 -4.2394714675537728e+01 1.3506818152977456e+04 1.8300816818298968e+04 1.6005449696782620e+04 -7.4976254089018146e-01 -3.9304793277844266e+02 1.2320317009648227e+03 6.3252703401249200e+01 -2.6555445914847295e+00 -2.3263793104784716e+00 -9.7356734598592436e+02 -2.8705015464131952e+02 8.6396243837192014e+02 2.2169274838537604e+01 3.9858775345775894e+03 1.7780236401868237e+03 1.6800358584945116e+04 -3.5915568577365320e+01 1.8277652408276697e+03 -8.3845012091280678e+03 7.8615240508627912e+03 -8.4151173910612415e+03 -8.1535727589685484e+02 
      </Row>
      <Row Index="4">
        3.1767834021825934e+00 1.5597788790301968e+02 -5.8063105204677072e+01 -2.8386615462807498e+01 1.6811623103478802e+01 -2.1135450534558120e+00 -4.3384467379083617e+02 3.1161415447100291e+02 7.7660055732291539e+02 -2.1873144594207474e+00 2.7382901451323416e+01 -3.9881154185655328e+02 -4.0224161206522675e+00 -4.0671347885406561e-01 4.1066126484914669e+00 7.0214893685869606e+02 3.7815865015970093e+02 -4.7106025184596274e+02 1.5828809888595836e+00 1.1859880879194077e+02 2.7837438914925031e+02 -1.2915346445047600e+01 2.6403887225360654e+00 5.4160691557271623e-01 -1.8441979125315996e+01 -6.0652260606613709e+01 9.2408258535093523e+01 -7.4251403171044403e+00 -1.0894915655673117e+02 -8.5172593171963314e+01 6.5633927694441496e+01 -1.6218922245649882e+01 4.6767515022907906e+00 -8.4280507091079608e+02 -2.8834047721590343e+02 3.9627394344857601e+02 2.5165466892509408e-01 5.6689333355240741e+01 -2.4556441374804277e+02 -2.5221103008641510e-01 8.2484839741555760e-01 2.6388517425937547e-01 3.4924112711811023e+02 2.5875753732629676e+02 -2.5640668378035235e+02 3.4470856195878667e+01 -7.0297110733793460e+01 -4.9355585546076341e+01 6.6119208016210536e+01 -2.6948786126066523e+01 1.3543277312710726e+00 8.9671800236608647e+01 -1.1787071476027714e+02 8.8986905883888539e+01 4.1547819618327236e+02 
      </Row>
      <Row Index="5">
        3.6939998401490399e+00 -1.3306293480836405e+03 3.7139279232523165e+02 1.1192302504860545e+02 -2.1135449180183299e+00 3.4982375110029722e+01 2.5920894239220598e+02 -4.7794986283420604e+02 -1.1616517493762562e+03 1.4382120633288267e+00 4.9878406296638900e+02 1.3757671646803794e+02 -4.1496084617937235e+01 7.8395001622997516e+00 1.5860683135127411e+00 -7.5090217021442754e+02 -1.4138385221710519e+02 9.1882412606838341e+02 1.0040164298976744e+00 -1.5606825143705649e+02 3.0042325700139756e+01 3.0064392432854373e+01 2.3085096073929181e+00 5.2903987329925055e+00 -1.8078752812726009e+01 -1.3759654695014885e+02 -1.7882154397843135e+02 -2.8388216477128645e+00 -1.0625913238518367e+03 2.9536778886602167e+02 -5.2318321923521914e+01 -2.1234247113704043e+00 -2.4295073488894651e+01 7.1894565935695869e+02 8.7474622358340321e+02 -3.0360506319789243e+02 3.1818051388750218e-01 2.0920597874013382e+02 -1.7429049844380902e+01 -2.6294735548126611e+00 1.0503893637007202e+00 9.2327454769630701e-01 -3.2736250336323579e+01 -1.1266352839719056e+02 2.4297335105789095e+01 -1.1378265848695630e+01 1.1925453285429228e+02 1.2219421419394311e+02 -4.3241893146233437e+01 1.6307680050595681e+02 3.9888461778733017e+02 -6.5370563219855342e+01 5.0451255265295252e+01 -6.6122338030372703e+01 2.4439382145508844e+01 
      </Row>
      <Row Index="6">
        -1.3920734822852228e+02 4.8035406642217422e+04 -1.5368836267632199e+04 -1.6511015691091841e+04 -4.3384467827212899e+02 2.5920901495170477e+02 4.9679353328625648e+05 1.5387472211069067e+05 -3.0408168463980738e+05 3.2822734266330372e+01 1.2619274394730345e+05 -1.8026827727340416e+04 6.2522545327261405e+03 1.9643499550952424e+02 -5.4155862214461216e+01 -6.8495113632130029e+04 -5.0090767934954813e+04 6.1147153439074711e+04 -6.6906885154223474e+01 -2.1998472529680261e+04 4.4740998703578036e+04 -6.2799338204659043e+03 8.6557249766105116e+01 1.8751516390457425e+01 6.7940941249961194e+04 3.0285892322029671e+04 -2.7483523139060733e+04 1.4503092443458630e+02 -5.8860182911055104e+04 -5.0006988450976074e+04 3.1526398429215398e+04 6.1322351775190100e+01 -2.2916634198380461e+02 -1.5908007738934355e+05 -9.8982966522406088e+04 -3.4155798190299181e+04 4.3028222654770687e+00 2.2886700695123043e+04 3.4333173030386056e+03 1.0155856810096273e+03 4.0078051673900504e+01 7.1255086880191376e+00 -1.7227567114476307e+04 -2.5520528386982158e+04 8.3390194631100676e+03 -9.7833505206352129e+01 -2.1970221692744395e+04 -1.4458661831958798e+04 5.4815458102737612e+04 8.3827533052512481e+03 3.0823779440535104e+03 4.4022273967017973e+04 -3.4504470866598400e+04 4.3547037718419451e+04 -1.2726527584251540e+04 
      </Row>
      <Row Index="7">
        -7.7006678061266030e+00 2.4376432642890286e+03 -3.0920248969004664e+04 -1.6776804085245753e+04 3.1161408345277681e+02 -4.7794976303083251e+02 1.5387473037560086e+05 2.5890710995898649e+05 4.2685832324661162e+04 -3.9409780350744541e+01 7.0488909834126598e+03 9.9062410776975357e+03 3.0397738270843638e+03 4.4589011613876499e+02 7.3051455260945019e+01 -4.5575932245174256e+04 -3.2098087180071110e+04 2.3018429817987606e+04 1.0030862945434507e+01 -3.2110589832861275e+04 3.9089551150102721e+04 -4.7526245353159557e+03 3.5149132041653564e+02 -1.6351771353413085e+01 1.9430936632168748e+04 5.3417981175173285e+04 1.8134901751350295e+04 -9.7805297680143951e+01 1.0834608467250087e+05 3.3360099524187353e+04 2.5627665319882570e+04 -1.0029397323387977e+03 2.7759608538425778e+02 -4.0852261571536277e+04 -2.6980273578673752e+05 -1.3021462416351377e+05 1.5639632177129627e+01 -1.8510199607426330e+02 -1.9766518405815182e+03 3.1172638952868920e+02 1.1225301506485782e+02 2.0525777083879724e+01 -6.7054862020474811e+03 -9.0074645212058840e+03 2.9407267708581785e+03 7.6162532460444436e+02 1.4685984997243824e+04 6.2739218367547655e+03 -3.7021777802235709e+04 1.1758440467334762e+04 -5.5713377733237194e+03 -3.4401584011313782e+04 2.8679946443972858e+04 -3.4150262541340198e+04 -1.9616145607091021e+04 
      </Row>
      <Row Index="8">
        1.2975801253813188e+02 1.1898749681137083e+05 1.0237528542383556e+05 -1.3941194327698548e+04 7.7660051069297106e+02 -1.1616517150612297e+03 -3.0408168054843880e+05 4.2685842233077812e+04 4.2212838133075251e+05 -4.0204977208608398e+01 -9.1584430001953529e+04 5.3357140939726836e+04 7.0051109475333635e+02 -2.2524053199947502e+00 1.3243226712640472e+02 6.7903240871236325e+04 4.4524879187202372e+04 -6.0744426480727729e+04 5.9934658184306812e+01 4.8747666552104747e+03 1.5118791372104461e+03 -1.8589838905758018e+03 1.1451893139272124e+02 -1.4007626975661418e+02 -1.9559306540817706e+04 1.1641976918048771e+04 3.5969295436192304e+04 -1.7377901429124438e+02 6.0444051202013507e+03 3.3762436229606639e+04 1.5757278828421997e+04 -7.3717957419496781e+02 7.2140199679775105e+02 3.8408628182558241e+04 -9.6712770667743840e+04 -1.4605748379483033e+05 4.5353179612616508e+00 -2.1028278307812492e+04 -1.1051083880096350e+04 -9.6780586874002188e+02 2.0647376021444394e+01 6.7720805164367652e+00 1.9411350983339114e+04 2.3359843589563057e+04 -1.1427562450442936e+04 4.5391811935482110e+02 6.6057904924320719e+03 9.1866228159907987e+03 6.3287225779016968e+04 -3.4755286957778699e+03 -1.5511728313942243e+04 2.3189195156079903e+04 -1.1537234791733783e+04 2.2642287971201120e+04 8.9082708431534775e+03 
      </Row>
      <Row Index="9">
        -6.3956687811501212e-01 6.0091205372876175e+01 -7.9849111763930566e+01 -3.8749843947214404e+00 -2.1873144659706441e+00 1.4382120683562984e+00 3.2822734557876231e+01 -3.9409781950943824e+01 -4.0204977745721422e+01 2.4171405955993785e+00 2.5992737984002837e+01 -1.0949293404202342e+02 4.0353115964299233e+00 -1.5815543316944658e-01 -1.5807176201094537e+00 -6.2485180163499834e+00 -1.8974421258986332e+01 -2.4739337317764367e+01 -5.8041374200081464e-01 -1.5395149385353259e+01 -8.8278215663196882e+00 -1.1315916625500879e+00 -5.6299959233953389e-01 4.5901456411756075e-01 3.6748365398880898e+00 6.8984121225266293e+00 -1.6284460462720582e+00 4.5213687683682720e+00 9.2168694073039987e+01 -6.4107106107424613e+01 -4.5885128796182038e+00 2.4271497391717696e+00 -3.4401388066364400e+00 4.7632725162291685e+01 2.1526104343019931e+01 -1.1699022560273457e+01 -1.6788293318733769e-01 -4.4083611988682030e+00 -6.0244009934814260e+00 3.3590073767951623e-01 -6.4780944055810419e-02 -8.3708082373266879e-02 -1.2519065841380884e+01 -7.0630339507111062e+00 8.8996000928018795e+00 -3.0378473778904812e+01 -2.0831415499710712e+01 -1.9422994894475575e+01 7.9274954799024187e+00 -4.5999576887730722e+00 1.1334149992552167e+01 1.9186773811117128e+01 -2.1352091576972459e+01 1.9275580045595461e+01 -2.4181519127301641e+01 
      </Row>
      <Row Index="10">
        1.3182124621689036e+02 -8.1373581033620285e+03 4.8191692121324624e+04 -2.6188616092096045e+03 2.7382880149015136e+01 4.9878411115327179e+02 1.2619273909019935e+05 7.0488867955941969e+03 -9.1584431232944233e+04 2.5992737929283066e+01 1.4851512032279451e+05 -2.3375628106439670e+05 9.0098312875586066e+02 -1.1452622403913369e+02 7.0830712776714222e+01 5.5665410990043238e+03 -4.6873729827808565e+03 3.2946568421998636e+03 -1.3163201555408932e-01 -9.1809939520381249e+03 1.4561241886723461e+04 -1.4991355451730944e+03 -4.1362723279346874e+01 5.5531360609868443e+01 2.4236779836904025e+04 4.4458910033970315e+03 -1.4691284609746086e+04 2.7681715762891201e+01 -4.9767792614349994e+04 7.8603569170699993e+03 7.1617397582063186e+03 8.3895625651597044e+01 -3.0359874096809904e+02 3.1349026379811850e+04 8.7328201196691189e+03 -7.3473025439622579e+04 -8.4673039508797854e-01 2.1208876946964716e+04 -1.0522249008885898e+04 2.7080966411345139e+02 -1.9799027543960570e+01 2.1196549330783824e+01 2.2852594355427746e+03 -2.9540318467840939e+03 -3.6832457607701544e+03 -6.2723185648285107e+02 -1.1433423706762753e+04 -2.3472723302318782e+03 4.2399416253362215e+04 -1.5689061999072437e+03 5.4876492353851354e+03 2.1240731922101430e+04 -2.1922893107289008e+04 2.1255318693011926e+04 2.4626572211497190e+04 
      </Row>
      <Row Index="11">
        -6.3015888728623395e+00 3.3116135861372924e+04 -3.0420965450350646e+04 -2.2972110857672469e+03 -3.9881149308578051e+02 1.3757666836271264e+02 -1.8026827434476465e+04 9.9062311054401507e+03 5.3357134150731763e+04 -1.0949293441056216e+02 -2.3375628526596038e+05 7.5495948714878294e+05 -1.1096553008197889e+03 3.2250976355216244e+02 -6.9695874674233664e+00 -1.7063476154291563e+05 -7.5908076152079826e+04 1.5220656533931743e+05 1.5044476593497734e+01 1.8381372537233245e+04 -1.3515190515120252e+04 -6.5844398483459304e+02 2.7542016651643968e+02 -2.6029739409911599e+01 -1.1955848452304204e+04 -7.6933959108453964e+03 1.6758559217154121e+04 -1.5365835464567044e+02 -2.5893826321700282e+04 -5.9409619429485087e+04 7.9694037319348208e+03 -3.9631947006259765e+02 1.6581614730765551e+02 -7.4627514980517371e+04 2.0977099790216536e+04 2.6214576789399092e+04 -5.5478148920142729e+00 -2.1501379064710381e+04 2.8360565677575301e+04 -8.5151156946860431e+02 9.8491462920696179e+01 -2.6506424949446796e+01 -1.7645332346642463e+03 -1.8848665796493588e+04 1.0835019509461381e+02 1.4057129991883448e+03 -3.4731671503894817e+04 -2.5458547172278304e+04 3.2050349064647715e+04 1.3302016727551825e+04 3.0924942173579666e+03 4.2228150204900812e+04 -4.5990846927913793e+04 4.2312617267149646e+04 -6.5588515689334847e+04 
      </Row>
      <Row Index="12">
        -1.3369182849845529e+01 5.5066655779797811e+03 1.6336250930545859e+03 -7.0737622458107592e+02 -4.0224174887211070e+00 -4.1496081814565933e+01 6.2522545620353430e+03 3.0397738658094941e+03 7.0051109466313085e+02 4.0353115915017668e+00 9.0098330090609477e+02 -1.1096551925566614e+03 3.3774851567729655e+02 -5.2346577603979068e+00 -1.0814836218789154e+01 1.8493440260446203e+03 -2.5355502049388988e+02 -2.4984237189112755e+03 -5.4688317250463427e+00 -7.0153199069673633e+02 8.9644836893789409e+02 -1.5925733798882450e+02 1.9715602032391433e-01 -9.7596138926028360e+00 1.7781618110409438e+03 8.5499262442606539e+02 -6.4363902997295975e+02 1.8526046146150566e+01 -1.6644299549165844e+03 -1.6605778928595905e+03 9.5678172042350184e+02 -4.4311286250232271e+00 2.2847971626622837e+01 -1.9000887015437645e+03 -2.6550400752482028e+03 -4.2101068857310374e+03 -1.1902071388285400e+00 -1.0704549369076111e+02 -5.7322589379835755e+01 4.4191697451192070e+01 4.0236216195851970e-01 -2.6921844682584295e+00 -6.1248518388985644e+01 -9.6053213356877905e+01 -1.7957967468373010e+02 -4.8029556834903360e+01 -9.6882384741577619e+02 -5.6693540657357607e+02 3.8252250481412252e+03 -5.9612205991525954e+01 -5.3915386863528977e+02 1.6911598753539763e+03 -1.6835633525552928e+03 1.6986693132737491e+03 2.9754408512836198e+02 
      </Row>
      <Row Index="13">
        1.7237500270417314e+00 -1.8219962709425337e+02 -4.0408878070985071e+02 -1.6221292235688745e-01 -4.0671355450009677e-01 7.8395003594108505e+00 1.9643502310899802e+02 4.4589010806600243e+02 -2.2524336936574154e+00 -1.5815543723994807e-01 -1.1452622030814521e+02 3.2250979731712869e+02 -5.2346579452778705e+00 8.6885157496025993e+00 2.2842555142454746e+00 -1.9937302900920417e+02 4.1661022418110377e+01 2.5744260336001003e+02 8.0602705628594895e-01 5.7212642015084839e+01 -4.0270384400881903e+02 -1.2384151800049468e+00 3.2847433830675459e+00 1.9049656650908942e+00 3.8471873260250511e+01 1.2137739506170620e+02 9.2467705945110108e+00 -3.0923368680668606e+00 1.2740655891914983e+02 -3.4366391911976768e+02 3.5196240568477783e+01 -5.9925284122346980e+00 -5.2573191055442123e+00 1.0879458299210569e+02 -2.0974400882680243e+02 -3.3812517734235541e+02 1.8106442382479604e-01 -2.6879855288957273e+01 6.4500804077147890e+01 1.6573210167431094e+00 1.3588342085832725e+00 3.9856319330129314e-01 -1.6440609159711516e+02 -8.7579468055850640e+01 1.3177884579573868e+02 8.4256624343776423e+00 -5.7436300137717822e+01 -5.7198440851918939e+01 -7.4618275598508887e+00 1.6793048922880897e+02 1.0012511830884026e+02 1.0378228115968099e+01 3.0123965960146389e+01 1.0593007561556078e+01 -1.7870660359310159e+02 
      </Row>
      <Row Index="14">
        3.5666344330980468e+00 2.3764405257346787e+01 8.2372366892524980e+00 -4.9819740871693323e+00 4.1066126804180136e+00 1.5860682818531384e+00 -5.4155856647327710e+01 7.3051460744821796e+01 1.3243226700814861e+02 -1.5807176204544353e+00 7.0830713760045825e+01 -6.9695900118159386e+00 -1.0814836088095987e+01 2.2842555037535179e+00 4.0990500957114495e+00 -6.6592538596619775e+01 8.1704715535997536e+01 1.6415202573698284e+02 1.5855777989287505e+00 8.4093922434868745e+01 -5.1006298461543494e+01 -4.8949001915380457e+00 1.2671053839296642e+00 9.7620151133106425e-01 -4.3218057722020667e+01 5.9193933382579154e+00 7.8414331979202771e+01 -7.3955788193764089e+00 -6.3537665365020587e+01 -3.2711304183650554e+01 1.9238451934168577e+01 -3.7300857713568396e+00 2.6882675890548757e-01 -1.5630602102556512e+02 -6.8247998612956025e+01 2.8412456022533771e+01 2.9226739994312373e-01 3.3977716133433873e+00 -1.0050573980070928e+01 -1.5106442122601875e+00 4.0152235418465676e-01 4.2381466711146826e-01 7.3820639101220689e+00 2.0302450278457982e+01 8.2870891736432952e+00 2.8191414033752565e+01 -1.3772086257608924e+01 -7.6865623329891584e+00 1.1008328785362224e+01 3.7762417547687932e+01 1.6917814318105187e+01 1.8979277041938555e+01 -1.4743093920379351e+01 1.8822942115315868e+01 6.2279140534044899e+00 
      </Row>
      <Row Index="15">
        -1.5206613704198753e+02 6.0244217535308060e+04 -1.7679403372897210e+04 -1.6814091265150091e+03 7.0214895207867471e+02 -7.5090219807107485e+02 -6.8495111168251795e+04 -4.5575919576433444e+04 6.7903251217878380e+04 -6.2485186583598988e+00 5.5665454841663977e+03 -1.7063477120462622e+05 1.8493443340316530e+03 -1.9937301051680788e+02 -6.6592539878813909e+01 1.5362828204547538e+05 7.0310272156622857e+04 -1.3067098193781500e+05 -1.7424846173071955e+01 1.6036783811055455e+04 -4.7613544424230231e+03 -1.9179937391521716e+02 -4.4223070017355724e+01 -7.0857853186499923e+01 7.0759694580852738e+03 -1.5008887286367988e+04 -8.8897746057379281e+03 3.9734564996042224e+01 -1.0638589384327681e+04 -4.2335202426440825e+04 -6.2475896230537501e+02 -4.5878813654051316e+02 3.9942257724099852e+02 -6.9517754241143339e+04 5.1653199922510219e+04 7.4882589996304712e+04 3.3421172019909307e+00 1.4842177880363897e+02 -2.0573550592380467e+04 3.6006935737040010e+02 -1.3827428690399742e+01 -1.0595516363704022e+01 1.4128081806212547e+04 2.4323689453532632e+04 -7.9252967359367449e+03 3.4909405971853994e+02 -2.6316229253226185e+04 -1.9861174610297589e+04 2.4234374338737816e+04 -8.3505618621362919e+03 -8.9270918417189314e+03 3.4740973379850504e+04 -3.4428999548369306e+04 3.6772623772564926e+04 3.8810450478884290e+04 
      </Row>
      <Row Index="16">
        2.2589725697491303e+01 2.4937459116371720e+04 1.0111703544021453e+04 -8.8161561057844878e+01 3.7815866947200630e+02 -1.4138388021969564e+02 -5.0090765513344624e+04 -3.2098079590602079e+04 4.4524885218985764e+04 -1.8974421769211403e+01 -4.6873704918871190e+03 -7.5908082780618934e+04 -2.5355481051059559e+02 4.1661029952368381e+01 8.1704715194531076e+01 7.0310273681270206e+04 5.0183678772299354e+04 -4.7667166089891376e+04 4.0162659330612797e+01 1.3552940489389037e+04 -2.5386265620416625e+03 -7.8795192594692509e+01 -4.6074774464015860e+01 4.1558306555655541e+01 -5.4807633742623493e+03 -1.0532538727235738e+04 4.4481143588783698e+03 -1.3397894832852216e+02 -2.1271859316012255e+04 -1.0557851063063626e+04 2.4235605277486184e+02 -9.3914159395992584e+01 4.9138167582974404e+01 -6.0494173142767446e+04 2.8452870069956422e+04 5.7472672804807917e+04 1.0580300876566170e+01 -2.9040921999143411e+03 -7.0180602391614984e+03 -6.5349722789290780e+01 -7.8420468649940069e+00 1.4059969005478244e+01 3.6837609414446583e+03 1.3330192177432104e+04 1.1029481221675924e+03 5.4264756501368538e+02 -1.0024641442633721e+04 -6.5379375832685009e+03 1.5922670672968448e+04 -3.3004411300897718e+03 -1.1751682654472700e+03 1.6770768935726221e+04 -2.5659672489039978e+04 1.6734918721884722e+04 1.4110587854472475e+04 
      </Row>
      <Row Index="17">
        2.3126649234039724e+02 -4.7123951541043723e+04 3.1898291069413335e+04 1.9611472041502980e+03 -4.7106025013446907e+02 9.1882413667661910e+02 6.1147150856583321e+04 2.3018419661434968e+04 -6.0744433693235987e+04 -2.4739337126511600e+01 3.2946532156104749e+03 1.5220657146043103e+05 -2.4984239509192412e+03 2.5744258352216639e+02 1.6415202709903247e+02 -1.3067098026335210e+05 -4.7667163993833397e+04 1.2510871059915167e+05 5.7170215244852500e+01 -4.0433370133332023e+03 2.8791025248728674e+03 -1.0451082710202508e+02 4.7476910446790214e+01 1.3260316247934509e+02 -7.2028322764441909e+03 6.8609878717587526e+03 1.0026199654850352e+04 -1.8261967182979336e+02 -2.6189782151903888e+04 2.5884245535253409e+04 2.3642149653266724e+03 3.3975634994569458e+02 -4.8254092257732310e+02 2.7916270376908658e+04 -2.2591782174996875e+04 -4.5347748371095513e+04 5.1656320347556886e+00 1.9177229125901204e+03 1.6278032684689530e+04 -5.1098242995862677e+02 1.8897659055244830e+01 2.8055719696435361e+01 -1.0530087813964543e+04 -1.8374784535407947e+04 7.4622571652361012e+03 1.5629277077775623e+02 1.7592721730323115e+04 1.5155172581702898e+04 5.0458430909832332e+03 7.8293562679043062e+03 1.1465049936618629e+04 -2.4663948308711253e+04 2.4254737276897507e+04 -2.2579871025106986e+04 -3.0708820375716110e+04 
      </Row>
      <Row Index="18">
        1.9290111020209832e+00 -2.1295905907658522e+01 1.3430648031433066e+00 3.0888167554051433e+00 1.5828810111606941e+00 1.0040163976529453e+00 -6.6906881963533152e+01 1.0030866572012174e+01 5.9934658799297871e+01 -5.8041374229659426e-01 -1.3163188313045282e-01 1.5044473513585489e+01 -5.4688316296251411e+00 8.0602705408723330e-01 1.5855777997359486e+00 -1.7424843705414929e+01 4.0162660620838878e+01 5.7170213084812872e+01 1.9261354369916468e+00 2.6997227759413245e+00 9.4071810581859111e+01 -4.9558428885465018e+00 1.4338562848771036e-01 1.0279410590596914e+00 -9.7550546193567946e+00 -8.5810267751253431e+00 2.8470137498317627e+01 -4.6927685416568261e+00 -4.7904025741845516e+01 1.4234197566879896e+01 9.0496352115751328e+00 -1.0672064555888980e+00 -4.4985681710619518e-01 -8.0560215617998338e+01 -2.5386736467369595e+01 3.0321315797336656e+01 2.5303064269480091e-01 -6.0856223159418921e+00 -3.4967222655164620e-01 -1.1637503584068958e+00 7.5711114172991020e-02 2.2302897097993496e-01 1.1311166201592173e+00 5.2518004892438421e+00 5.3063518073247700e+00 1.1666286924781915e+01 3.6620459850106784e+00 5.5515494437646691e+00 -1.0379041898715869e+01 1.2065730536611712e+01 1.2859136328946482e+01 -3.0188623132822059e+00 4.7463926371510725e+00 -3.1016215543078829e+00 -1.4638995472477413e+01 
      </Row>
      <Row Index="19">
        5.0608712224063765e+01 3.0875158268873703e+04 2.1396298365407696e+04 3.8797235580932806e+01 1.1859879991322052e+02 -1.5606823391575347e+02 -2.1998469251251903e+04 -3.2110588571977540e+04 4.8747648456805473e+03 -1.5395149463543476e+01 -9.1809921243943027e+03 1.8381372101347941e+04 -7.0153195477660563e+02 5.7212646703647778e+01 8.4093922027045053e+01 1.6036782285291703e+04 1.3552939482798603e+04 -4.0433357457268066e+03 2.6997218414943447e+00 1.3289201888595056e+05 -1.8168123006623320e+05 -3.9617887148814793e+03 3.4923847485508574e+01 2.4427333842592691e+02 -1.0641559276734797e+04 2.2860922678368092e+03 3.4494866483576945e+04 -8.0656715740844788e+01 -1.1265511599991523e+05 -7.2332323308576633e+02 3.2365813973888407e+03 -1.2202314905670210e+02 -1.1171003330744247e+02 -1.2569374236948652e+04 3.9214280538833897e+04 5.1363733200358074e+03 6.0330368821514986e+00 4.7893216036011017e+02 -1.4941650269006825e+03 -2.3546260349134721e+02 4.6570216748730209e+00 1.7075345831771969e+01 -4.1607229032852929e+03 6.8670622945610148e+02 5.6520189839211662e+03 2.9893915516488050e+02 9.8415768874458299e+03 7.6188555589967909e+03 -1.6979716193419474e+04 5.5028221028365670e+02 -1.4035612688681590e+03 -1.5768576133207913e+04 1.3451601247468812e+04 -1.5794199082238774e+04 -4.4621389557411567e+03 
      </Row>
      <Row Index="20">
        -7.5754015715410787e+01 2.2945456108283819e+04 -1.8204256761582335e+04 -4.4308800130703448e+03 2.7837440504795023e+02 3.0042300257775899e+01 4.4740998829762604e+04 3.9089550573719782e+04 1.5118787880596992e+03 -8.8278199675569340e+00 1.4561242266215544e+04 -1.3515193564706922e+04 8.9644845678918364e+02 -4.0270385953736422e+02 -5.1006304598269054e+01 -4.7613519321043286e+03 -2.5386262338709712e+03 2.8790997599690600e+03 9.4071808428975260e+01 -1.8168123032768385e+05 5.9378198425622820e+05 3.0819180649526550e+02 -5.0997988846222529e+02 -8.0466119743036870e+01 -1.0511729785624835e+05 -7.5690994265723377e+04 8.0593154168967812e+04 -6.1311103274322534e+00 2.7022902797634393e+04 -8.2663024393831525e+04 6.6180389411803098e+03 4.0077967991329933e+02 1.0470811334041809e+02 -9.2640499234437411e+03 -3.1071169312148351e+04 -3.3494184266002230e+04 -1.2417950854781594e+01 3.7685590135720458e+03 -1.2628638975729073e+04 3.2854949386888933e+01 -4.6267647294130093e+01 -2.9999407982898155e+01 3.0016374043389271e+04 1.6809129542598726e+04 -2.3678447937642410e+04 5.3259567129425704e+01 -1.4300125542167876e+04 -1.4905668172806312e+04 2.1396784203912393e+03 -9.0693219497835707e+03 5.7043886362430590e+02 5.4195799451046478e+03 -2.5216349050462027e+03 5.4562232774553704e+03 2.9169307896781116e+04 
      </Row>
      <Row Index="21">
        2.6079212298412813e-01 -5.0448616543041571e+03 -4.8445419788146573e+03 1.0511698657251125e+03 -1.2915344186418338e+01 3.0064388156635193e+01 -6.2799341428961816e+03 -4.7526245514089014e+03 -1.8589835322949784e+03 -1.1315917145296055e+00 -1.4991358239939391e+03 -6.5844416461789956e+02 -1.5925733818796925e+02 -1.2384152274391909e+00 -4.8948998889935131e+00 -1.9179891473034610e+02 -7.8794879732328354e+01 -1.0451118134056105e+02 -4.9558426851481183e+00 -3.9617886471166621e+03 3.0819180672541552e+02 5.4462709495378272e+02 1.4766996241690311e-01 -1.1203316155525625e+01 4.1711325754052791e+02 -5.0392853481114696e+02 -3.1487543876629761e+03 4.9271594472340121e+00 5.7514030917535965e+03 1.7729094773802044e+03 -1.7884845247830692e+03 1.2249667245615882e+01 -1.6215777484210605e+00 3.5034157655171612e+03 4.3487023223202968e+03 5.6036213126219109e+03 -5.6420685336965914e-01 -2.6049295472437501e+02 3.0166023629517235e+02 2.2277348024267347e+01 -1.0040667263249301e+00 -1.2717393889675337e+00 -2.5602106594547195e+02 -8.2865103063647723e+01 1.6724052666679438e+02 -2.7178279793829461e+00 1.1057300715186100e+03 4.1837010440773184e+02 2.5014019838861586e+03 -3.4025040550160156e+01 4.0656625593486854e+02 -2.4444347744527659e+03 2.3113417322084420e+03 -2.4527383352558827e+03 -3.1498057419582756e+02 
      </Row>
      <Row Index="22">
        1.0112078563238924e+00 -4.4280847020688839e+01 -2.8260552880768262e+02 -1.0983132294172520e+01 2.6403886140458872e+00 2.3085097572486259e+00 8.6557246511103727e+01 3.5149131344058998e+02 1.1451891981539180e+02 -5.6299959231983721e-01 -4.1362725971783561e+01 2.7542019144599419e+02 1.9715549059503523e-01 3.2847433965055739e+00 1.2671053865279345e+00 -4.4223089964200966e+01 -4.6074783870607241e+01 4.7476927505321790e+01 1.4338563032072782e-01 3.4923845141048567e+01 -5.0997988911234620e+02 1.4767046640921255e-01 3.5271383079943286e+00 -1.2276874941062954e-01 1.7054235997103319e+02 1.6007635847933724e+02 -1.2406250873368731e+02 -1.8933967489885251e+00 1.9734765656315827e+02 -2.6533778946250152e+02 2.7159450127135049e+01 -7.8803036289972574e+00 -2.0132124252231254e-01 4.7074342881709171e+01 -2.1551692780453919e+02 -2.1241643420052978e+02 7.8987008849555410e-02 2.2439852263575474e+01 -2.6205088122032777e+01 1.3210782654814013e+00 9.0722503724425430e-01 1.4599411627596301e-01 1.8649665921741104e+01 -8.9831357582035380e+00 -2.6399699794751648e+01 9.4123440908516613e+00 -3.9074261406692550e+01 -4.3559152809581960e+01 -1.6296584605935379e+01 7.6331803006572372e+01 3.1527238587679349e+01 -1.3120357916124306e+00 2.9676124925742201e+01 -1.0702860441319899e+00 1.9191974178933030e+01 
      </Row>
      <Row Index="23">
        6.7219668121414777e-01 -2.6418564946503335e+02 3.0775831819687880e+01 1.6284393051093129e+01 5.4160690279475188e-01 5.2903987836813817e+00 1.8751529163104934e+01 -1.6351776109303902e+01 -1.4007628645754227e+02 4.5901456505863125e-01 5.5531363458249047e+01 -2.6029735984704310e+01 -9.7596139080741082e+00 1.9049656523692957e+00 9.7620150787659432e-01 -7.0857855352313251e+01 4.1558305324292370e+01 1.3260316531887156e+02 1.0279410562301947e+00 2.4427333574809441e+02 -8.0466113464955271e+01 -1.1203316021061779e+01 -1.2276875673822769e-01 2.6837057785127820e+00 -1.3683656677862083e+02 -5.6602017877452589e+01 1.8753330015160714e+02 -1.4323954722952246e+00 -1.8099509556662485e+02 -6.0011876896381864e+00 1.2065769684022460e+00 -2.5787997495143866e-01 -5.8366061942611562e+00 3.2697496628693202e+01 1.0693088077114393e+02 -2.7852154954848682e+01 1.3112584795397175e-01 3.0428251856183291e+01 -4.7375918081969060e+00 -1.5791007153508481e+00 2.1937235954358841e-01 3.4220756581466705e-01 -1.5356524189015401e+01 -4.3802512845245101e+00 2.5368935478718427e+01 -1.6856123431114725e+00 9.0958895542341267e-01 5.9561935675580457e+00 4.6038960436375760e+00 3.3171991322968040e+01 5.7449130261706557e+01 3.0448425166802693e+00 -3.0312235162697299e+00 2.8963687436423697e+00 -2.7535824705962995e+00 
      </Row>
      <Row Index="24">
        -6.1839997087608936e+00 3.3350359907994229e+04 3.3824258392065152e+04 -5.2714601208628455e+03 -1.8441964385399942e+01 -1.8078759891459221e+01 6.7940936843868287e+04 1.9430937422911025e+04 -1.9559301386230552e+04 3.6748353241255245e+00 2.4236779548753992e+04 -1.1955850293895659e+04 1.7781617872965114e+03 3.8471871013990381e+01 -4.3218055520319417e+01 7.0759702514210912e+03 -5.4807629101771454e+03 -7.2028330203423320e+03 -9.7550536136131996e+00 -1.0641559290483361e+04 -1.0511729844614917e+05 4.1711326679223919e+02 1.7054236229376235e+02 -1.3683656819472338e+02 8.8324735424713377e+04 2.8846336595189878e+04 -8.5247884779560700e+04 2.2252122296184929e+01 -9.1727978253005567e+03 -7.8339698983994022e+03 7.2593918995413251e+03 -2.5943686851053008e+02 1.1920387141971923e+02 -6.8787865740025038e+04 -1.8647239727535503e+04 2.8066117572732568e+04 5.6815220275355998e+00 2.8652137282956610e+03 4.1584331117833981e+03 1.4131022672093115e+02 7.9460920541125066e+00 3.6495656727076060e+00 -3.7570849078518422e+03 -6.3075445624076838e+03 1.0702162999308830e+03 -1.0319659441141994e+02 -2.9907872316917910e+03 -1.5506544962330240e+03 1.6519339569631982e+04 1.9700453871588470e+03 -5.3220404978600675e+02 9.9626161851189590e+03 -8.1928675304833978e+03 9.5553119527517410e+03 -1.9318998184985321e+03 
      </Row>
      <Row Index="25">
        -4.5922527217062452e+00 -1.7936643516750855e+03 1.9120736390985781e+04 -4.0705979561024487e+03 -6.0652280593836068e+01 -1.3759652069272371e+02 3.0285892864194211e+04 5.3417980660214736e+04 1.1641975070449218e+04 6.8984122880106042e+00 4.4458913437533474e+03 -7.6933926336303302e+03 8.5499257276698984e+02 1.2137739896877565e+02 5.9193932216473897e+00 -1.5008890625843484e+04 -1.0532540450768818e+04 6.8609906675528182e+03 -8.5810269721652617e+00 2.2860919991901283e+03 -7.5690994377176132e+04 -5.0392849483576572e+02 1.6007635927790457e+02 -5.6602016076357231e+01 2.8846336203377072e+04 3.0491269763429304e+04 -1.8567856561317887e+04 1.2081012034557848e+01 3.3250850829393021e+04 1.7850147146464773e+04 4.9276093823386846e+03 -1.7927615756405135e+02 8.8528873644935175e+01 -2.9979370775542029e+03 -6.7037262786619322e+04 -2.9817623934611947e+04 2.3825949874880266e+00 -9.5253703895006993e+02 3.1233118299823327e+03 8.9245278600516400e+01 2.5064029291937498e+01 4.4512130574276245e+00 -5.0474299094001308e+03 -4.8439793063160478e+03 2.7884265210378535e+03 -3.6400430620225961e+01 8.0546271863335733e+03 4.7444248630151105e+03 -1.3288806776811460e+04 3.2483544906662919e+03 -2.0668511344486747e+03 -1.3530678186662786e+04 9.5985218779268689e+03 -1.3472612421995727e+04 -6.9750508403491476e+03 
      </Row>
      <Row Index="26">
        8.1981428228991717e+00 -1.2525191096451534e+04 -4.9053104180508235e+03 -1.9450908500248994e+02 9.2408226852596670e+01 -1.7882150639852136e+02 -2.7483516894482724e+04 1.8134900945844245e+04 3.5969287959874287e+04 -1.6284445702308403e+00 -1.4691282700811182e+04 1.6758562906315146e+04 -6.4363901798486972e+02 9.2467740770547380e+00 7.8414328150040632e+01 -8.8897787789931663e+03 4.4481117307899767e+03 1.0026203062233442e+04 2.8470135339120645e+01 3.4494866063346242e+04 8.0593154798775300e+04 -3.1487543893198290e+03 -1.2406250796719033e+02 1.8753330283769907e+02 -8.5247884875274613e+04 -1.8567856739563726e+04 1.0073785303928470e+05 -4.9116290811055421e+01 -8.5627813116182861e+03 8.3535183080720017e+03 2.3022111644436313e+03 1.2156938671035005e+02 -7.6816762553072294e+01 4.8882120468035355e+04 -1.8977458466943852e+04 -6.8706079665206737e+04 -2.4936896091865393e+00 -1.8889662345031356e+03 -5.3197278433531501e+03 -1.7765912106204604e+02 6.1662541347326858e+00 3.6934505981808066e+00 3.7192504363241574e+03 5.7802393483102751e+03 -9.5733525213616667e+02 1.7771005880343728e+02 1.8401201313657875e+03 2.2708871275258925e+03 5.6141099561514238e+03 -8.0763068430618569e+02 -1.9891403051152479e+03 4.3037240343776393e+03 -1.4473608269711599e+02 3.8666464613846038e+03 1.2309275160367251e+03 
      </Row>
      <Row Index="27">
        -1.0016181104739770e+01 1.1611382479971547e+02 -1.0220333506176655e+02 -5.2905175823417165e+00 -7.4251403678634516e+00 -2.8388215928835443e+00 1.4503091623968621e+02 -9.7805307230414840e+01 -1.7377901611717641e+02 4.5213687695716356e+00 2.7681714262711200e+01 -1.5365834914661883e+02 1.8526045926616440e+01 -3.0923368592629492e+00 -7.3955788217285034e+00 3.9734562023567953e+01 -1.3397894968901835e+02 -1.8261966903763016e+02 -4.6927685411829625e+00 -8.0656717421830407e+01 -6.1311184529766685e+00 4.9271599966688253e+00 -1.8933967454585316e+00 -1.4323954806929171e+00 2.2252125895398834e+01 1.2081011612365057e+01 -4.9116297432833619e+01 2.1942834854917720e+01 2.2078381263212236e+02 -6.1770570279783016e+01 -3.3001083986826615e+01 6.7125305331706135e+00 -2.3456132238975798e+00 2.4956151300879273e+02 1.0063864182273456e+02 -5.7763867183335208e+01 -1.2238806643138485e+00 1.7397885723369289e+01 -4.9189730808617176e+00 3.3860142178771646e+00 -3.8766829566010319e-01 -9.2372098031349370e-01 2.6020692544594337e-01 -1.6938031633395731e+01 -1.8931009430580907e+01 -7.4620151942922064e+01 -3.0119713511807110e+01 -3.6086903619550455e+01 4.1613258771030303e+01 -5.3058531962966391e+01 -2.5611677166672010e+01 2.5611685133815435e+01 -3.7747390008694595e+01 2.5873884342048541e+01 3.2216000869867628e+01 
      </Row>
      <Row Index="28">
        -2.1415648624079040e+01 -3.0560005583643017e+05 -6.0893865351997709e+04 1.4123107756989519e+04 -1.0894916371563386e+02 -1.0625913570685686e+03 -5.8860174115778806e+04 1.0834608916935063e+05 6.0444016563745654e+03 9.2168695175266294e+01 -4.9767792850632432e+04 -2.5893827431744172e+04 -1.6644297658868577e+03 1.2740657734260003e+02 -6.3537665930760227e+01 -1.0638587482988953e+04 -2.1271858093843446e+04 -2.6189783810637280e+04 -4.7904027043397605e+01 -1.1265511462229103e+05 2.7022901812592987e+04 5.7514029002810794e+03 1.9734765704970232e+02 -1.8099509368498065e+02 -9.1727979141844262e+03 3.3250851373957987e+04 -8.5627799090290282e+03 2.2078381272429786e+02 6.2364925012151327e+05 -1.0542974346279269e+05 -3.4017859879140589e+04 -2.6878937718161762e+02 5.5113258581601269e+02 4.2555576330657263e+04 -1.3053895882206708e+05 1.0372209638626948e+05 -9.1183350306471453e+00 -1.9947880261526370e+04 9.5731508920160377e+03 3.6982846738441185e+02 3.8731603935774700e+01 -1.0567204866936152e+01 -1.8997232715369035e+04 -6.3489770892132601e+03 1.4705974692016400e+04 -1.3947240184582333e+03 -3.2531058040402480e+04 -1.5046399078027820e+04 5.5332225637774623e+04 4.4592824578644249e+03 -1.4259626887110700e+04 4.5375016107206371e+04 -3.5564836098914711e+04 4.5362024452395272e+04 -3.4234278807847644e+04 
      </Row>
      <Row Index="29">
        -2.5945394939705238e+01 -8.8071404283748867e+04 -9.5396304787406756e+04 6.2266241553357959e+03 -8.5172640249186969e+01 2.9536781511444445e+02 -5.0006986433051803e+04 3.3360100507517200e+04 3.3762432813583931e+04 -6.4107103145400515e+01 7.8603582038974700e+03 -5.9409618115439480e+04 -1.6605779086738585e+03 -3.4366390783021598e+02 -3.2711307309419290e+01 -4.2335207650610995e+04 -1.0557853969882621e+04 2.5884249192957919e+04 1.4234196442563558e+01 -7.2332219663425030e+02 -8.2663024701771094e+04 1.7729093944144745e+03 -2.6533779225880772e+02 -6.0011806914584582e+00 -7.8339727828318028e+03 1.7850147355001598e+04 8.3535216085773391e+03 -6.1770565399841857e+01 -1.0542974358008863e+05 8.7756246092926501e+05 -8.0013440992073283e+03 5.6916149538793661e+02 -5.6163036716093565e+01 -3.7938517441945529e+04 -1.5326472688110528e+05 2.0761642248252756e+04 -8.9087887870138793e+00 -2.1099909724892850e+03 -2.4328753640311952e+03 -3.3302734699251869e+02 -7.6656314833582741e+01 -2.3945626271458956e+01 2.4062598841890649e+04 1.1776036995509601e+04 -1.8820581387852344e+04 6.8528649392417719e+02 -3.8251895819701800e+04 -2.8479923470159705e+04 3.1224619508214884e+04 -8.9960523550093385e+03 3.9120015128449159e+03 3.9644643636789624e+04 -3.2736258162465267e+04 3.9672541185418610e+04 1.7572163981290356e+04 
      </Row>
      <Row Index="30">
        1.3880380578762924e+01 3.3100653674091627e+04 2.7827476237377741e+04 -6.0115269724202399e+03 6.5633919169528781e+01 -5.2318303198399612e+01 3.1526398838159548e+04 2.5627665194164445e+04 1.5757277914660028e+04 -4.5885127973820090e+00 7.1617407111205675e+03 7.9694048283436896e+03 9.5678170383023610e+02 3.5196239747361574e+01 1.9238450950133135e+01 -6.2476105547479688e+02 2.4235467444095957e+02 2.3642165843362163e+03 9.0496346083563992e+00 3.2365810636242636e+03 6.6180389921294518e+03 -1.7884845121867477e+03 2.7159452216046049e+01 1.2065774248314369e+00 7.2593918355255510e+03 4.9276095261316632e+03 2.3022111806798830e+03 -3.3001082169989495e+01 -3.4017860541422458e+04 -8.0013440890763031e+03 9.9178040243638352e+03 -1.0387260365589704e+02 2.5458657920524622e+01 -1.9415442849559062e+04 -2.4207485183475947e+04 -3.1880757654743262e+04 3.9528378339462833e+00 1.5675145664191546e+03 -2.3246808851114865e+03 -9.0577738712807076e+01 9.1180536470121343e+00 5.7857892969571889e+00 1.7120600829957154e+03 -4.6406907638721350e+01 -1.6160863243594258e+03 1.1615484396669126e+02 -5.7509521577325959e+03 -1.9423056359955408e+03 -1.2508237627306798e+04 7.5750376891938868e+02 -7.2151813485546631e+02 1.2691599642673411e+04 -1.2032048968218693e+04 1.2738350004107109e+04 1.4058551375467914e+03 
      </Row>
      <Row Index="31">
        -3.1265046598302888e+00 1.7338065621911824e+01 6.6735789500010355e+02 4.1996623015587680e+01 -1.6218922002516152e+01 -2.1234249476253564e+00 6.1322353786617697e+01 -1.0029397657985907e+03 -7.3717957825926476e+02 2.4271497321949767e+00 8.3895613703251612e+01 -3.9631948455805599e+02 -4.4311285348342988e+00 -5.9925284876200493e+00 -3.7300857448365976e+00 -4.5878808344917252e+02 -9.3914124325198429e+01 3.3975631586483445e+02 -1.0672064395110761e+00 -1.2202315026057333e+02 4.0077969577630506e+02 1.2249667698918799e+01 -7.8803037107852836e+00 -2.5787999595668509e-01 -2.5943685406270822e+02 -1.7927617037407376e+02 1.2156936718261373e+02 6.7125304923656062e+00 -2.6878938127595700e+02 5.6916145728886067e+02 -1.0387260489119356e+02 2.8122932428928475e+01 -3.5570125172870637e+00 4.9516197972212171e+02 6.5130396924666445e+02 1.7992544429599457e+02 -1.6465615613121254e-01 -8.6078806911580529e+01 2.4899673226874091e+02 -4.2691240322006827e+00 -2.5483156137179486e+00 -1.4931699138477117e-01 -3.1843005198982314e+02 -1.6922907929620368e+02 2.7206626353218701e+02 -3.5219683251312858e+01 1.2373815470012401e+02 1.1650336958695779e+02 -1.8884713026014936e+01 -1.4112895215441284e+02 -5.8365210921576740e+01 -5.9466930889848612e+01 1.9431491720956515e+01 -5.9533001752124619e+01 -3.4146802961003107e+02 
      </Row>
      <Row Index="32">
        7.0457229219833550e-02 7.5486444917101630e+02 -1.1814087252980711e+02 -4.2394719279357567e+01 4.6767514369964394e+00 -2.4295073557996254e+01 -2.2916632482560442e+02 2.7759613346111036e+02 7.2140202708042864e+02 -3.4401388034045892e+00 -3.0359872531611143e+02 1.6581612424504132e+02 2.2847972825079449e+01 -5.2573190038271482e+00 2.6882674508463522e-01 3.9942256674188980e+02 4.9138156451135835e+01 -4.8254092102941547e+02 -4.4985682896178580e-01 -1.1171002118385719e+02 1.0470809426567146e+02 -1.6215797681293593e+00 -2.0132117521573981e-01 -5.8366061693290989e+00 1.1920386465673855e+02 8.8528886816190592e+01 -7.6816741289132224e+01 -2.3456132053579895e+00 5.5113257582228334e+02 -5.6163017500762749e+01 2.5458666121363095e+01 -3.5570126180450177e+00 2.4804650202191482e+01 -4.4718705752846097e+02 -5.6072214954506103e+02 1.8208263026585408e+02 -2.4945320420356201e-01 -1.6800563252764010e+02 -5.9220121699662531e+00 5.8222979686530287e+00 -4.4151574405522420e-01 -1.0664125608898627e+00 7.6021179557499096e+01 8.0360524835322337e+01 -8.4920010895564175e+01 3.4670290924075516e+01 -2.4056446112158085e+01 -3.2965892636340328e+01 2.9496454335947533e+00 -1.0297461558974733e+02 -2.2743575519674152e+02 2.3867797747991517e+00 6.8739030677209687e+00 2.6135666094814951e+00 -1.7628407821993079e+01 
      </Row>
      <Row Index="33">
        -1.5458989930427197e+02 -8.7436294090049894e+04 -1.0478216028999645e+05 1.3506820667788685e+04 -8.4280518222462933e+02 7.1894579750794583e+02 -1.5908008008413957e+05 -4.0852279075542254e+04 3.8408607271422450e+04 4.7632725955425485e+01 3.1349018539081491e+04 -7.4627483638162696e+04 -1.9000894115128287e+03 1.0879459665559989e+02 -1.5630601486372686e+02 -6.9517768439033593e+04 -6.0494177689860255e+04 2.7916284673124479e+04 -8.0560209995026639e+01 -1.2569377376545865e+04 -9.2640482525911430e+03 3.5034165930628824e+03 4.7074324415950116e+01 3.2697505091942958e+01 -6.8787866362243018e+04 -2.9979414401185663e+03 4.8882115314281844e+04 2.4956150375727978e+02 4.2555581035815529e+04 -3.7938529976078571e+04 -1.9415446568117564e+04 4.9516210519211114e+02 -4.4718712847402799e+02 4.8590880727897392e+05 8.6238989705418382e+04 -3.4674522110090597e+05 -1.0265215520888432e+01 6.2449661719290452e+03 1.0824501915513523e+04 4.3160742638319192e+02 5.6218302363376580e+00 -1.3257472722243101e+01 -3.0842018927335605e+04 -2.6917193844313879e+04 1.6013612022916415e+04 -7.0217918844407541e+02 -8.6450897831730290e+03 -1.1960438323637654e+04 -5.4757423592204228e+04 7.1259775045857114e+03 9.1951547895987478e+03 -2.3818853773855622e+04 5.9913592535510907e+03 -2.3574747354491381e+04 -1.1181731390238907e+04 
      </Row>
      <Row Index="34">
        -4.7751282677850554e+01 2.0593792730508212e+04 -7.5510671303920055e+04 1.8300816731042338e+04 -2.8834040314640112e+02 8.7474614254790242e+02 -9.8982975217973595e+04 -2.6980273883277678e+05 -9.6712762444563996e+04 2.1526101756622950e+01 8.7328156751929455e+03 2.0977092508566777e+04 -2.6550401051896611e+03 -2.0974402245299660e+02 -6.8247991456810652e+01 5.1653212201531052e+04 2.8452877732847010e+04 -2.2591791373759686e+04 -2.5386731908928152e+01 3.9214280730962484e+04 -3.1071169237501868e+04 4.3487024384657707e+03 -2.1551693566871472e+02 1.0693087361924364e+02 -1.8647237527752899e+04 -6.7037263895333235e+04 -1.8977461559324671e+04 1.0063862987726991e+02 -1.3053895598850620e+05 -1.5326472724299956e+05 -2.4207485618891653e+04 6.5130393715762295e+02 -5.6072210668892990e+02 8.6238968598661770e+04 3.5005742502391897e+05 8.5777597757465963e+04 -6.5630231182648480e+00 8.7197062901571026e+03 6.6372951003146375e+02 -7.2593261041327850e+01 -6.3766206119246426e+01 3.6133294818595374e-01 -3.5237370460685333e+03 1.5398695544963766e+02 3.6745995437109304e+03 -4.1754417818036018e+02 -5.0752679280117110e+04 -3.4110138411916014e+04 7.9192460529479984e+04 -5.1644085373213275e+03 1.0888862134363440e+04 7.6671529016928340e+04 -5.0042190940039414e+04 7.6409659191240557e+04 1.7891742882841711e+04 
      </Row>
      <Row Index="35">
        7.8135326668628750e+01 -7.0824355581830256e+04 -4.4491836982833905e+04 1.6005446975149129e+04 3.9627410142262045e+02 -3.0360530798642583e+02 -3.4155798340329638e+04 -1.3021460726780332e+05 -1.4605745873911338e+05 -1.1699023663646130e+01 -7.3473023616650142e+04 2.6214539679533369e+04 -4.2101061206433178e+03 -3.3812518694021168e+02 2.8412455805750795e+01 7.4882616495164315e+04 5.7472685598547949e+04 -4.5347772022612167e+04 3.0321314052096991e+01 5.1363781628002571e+03 -3.3494186562398609e+04 5.6036204805047801e+03 -2.1241642938322420e+02 -2.7852166573909201e+01 2.8066118988661190e+04 -2.9817620654352766e+04 -6.8706075482734785e+04 -5.7763868812498934e+01 1.0372209644427606e+05 2.0761653522392557e+04 -3.1880754242400359e+04 1.7992531778912834e+02 1.8208274742822340e+02 -3.4674524420688092e+05 8.5777575500790568e+04 5.2906336033480230e+05 -7.4562775426681425e+00 -1.1665286962070677e+04 -7.1988062715389071e+02 -3.0357857024933310e+02 -6.5743831618824046e+01 -8.3795151278293467e+00 2.2549543890727004e+04 2.5815246785487070e+04 -9.2141056198164733e+03 -1.1016499192209449e+02 1.6587620219086373e+04 7.1089878751025863e+03 -6.1777755703109666e+04 -1.1702152305946373e+04 -4.3178711706007016e+03 -4.9971886446958379e+04 3.4550326571717262e+04 -4.9915471913558664e+04 8.3866036742363358e+03 
      </Row>
      <Row Index="36">
        5.3215168789363432e-01 -9.8630234764182845e+00 -8.1937480038143349e+00 -7.4976260579718357e-01 2.5165466603993242e-01 3.1818052032269589e-01 4.3028234630928459e+00 1.5639632914159908e+01 4.5353175508565648e+00 -1.6788293327754111e-01 -8.4672981643036827e-01 -5.5478144123483730e+00 -1.1902071273350339e+00 1.8106442484487184e-01 2.9226740012600438e-01 3.3421162176658181e+00 1.0580300295196107e+01 5.1656328482611933e+00 2.5303064251556928e-01 6.0330367498012993e+00 -1.2417950248507019e+01 -5.6420688440193889e-01 7.8987009705872968e-02 1.3112584874093303e-01 5.6815218864029369e+00 2.3825951025500385e+00 -2.4936892679448093e+00 -1.2238806640563000e+00 -9.1183355889867137e+00 -8.9087887725116754e+00 3.9528379954923980e+00 -1.6465615639590231e-01 -2.4945320771964447e-01 -1.0265214420996676e+01 -6.5630236668277862e+00 -7.4562795555418848e+00 1.3107875105540223e-01 -3.4951931966655509e+00 1.4647578556959839e+01 -5.2474739309501417e-01 -1.6373595240680605e-02 1.0536371543687138e-01 -3.1337052727129220e+00 -2.8516541038892789e+00 3.4308709075533299e+00 3.3078093179764743e+00 -2.5366211695425287e+00 -1.8660153885137658e+00 -5.6309696978256341e-01 2.8532325793431816e+00 2.0381026841585173e+00 1.3467774933615595e+00 -9.1904397386898351e-01 1.3523085720602097e+00 -1.7989078703439407e+00 
      </Row>
      <Row Index="37">
        -1.3315959384897724e+01 -3.0086963794783805e+03 1.3372977893357165e+03 -3.9304785286517472e+02 5.6689350895919233e+01 2.0920597968149306e+02 2.2886697559223750e+04 -1.8510403698500886e+02 -2.1028276784268062e+04 -4.4083624296472408e+00 2.1208876343392603e+04 -2.1501380384267453e+04 -1.0704552891862704e+02 -2.6879859946333454e+01 3.3977719445138064e+00 1.4842408409238124e+02 -2.9040909756330393e+03 1.9177211960327113e+03 -6.0856218751996494e+00 4.7893250265221650e+02 3.7685582529396052e+03 -2.6049289964597301e+02 2.2439853310146191e+01 3.0428250996577844e+01 2.8652141665926360e+03 -9.5253741380980864e+02 -1.8889671115620040e+03 1.7397883737899519e+01 -1.9947882106041037e+04 -2.1099908108092495e+03 1.5675144069639516e+03 -8.6078820737951446e+01 -1.6800563132663603e+02 6.2449642083539093e+03 8.7197079903410631e+03 -1.1665283749484493e+04 -3.4951932052700840e+00 4.7445492647398176e+04 -1.7629906289978532e+05 -3.5538274937645747e+02 1.4215167610829109e+01 1.6112392673401473e+01 6.0138706827981769e+03 3.3683992683474698e+03 -2.0379015639972567e+03 2.3146415177606414e+01 -2.3251935549617001e+03 -1.3872674364680233e+03 6.3298538068216294e+02 2.8528325896710157e+01 2.0193581812798056e+03 2.9365117661767817e+03 -4.2306282915025731e+03 2.9387780352074187e+03 -6.4060924809248594e+04 
      </Row>
      <Row Index="38">
        -1.9758069260744378e+01 -5.1223451701027516e+03 -3.8055380253992043e+03 1.2320321344650711e+03 -2.4556449753530615e+02 -1.7429022648874820e+01 3.4333258883044800e+03 -1.9766483034159755e+03 -1.1051092759431987e+04 -6.0243957116035745e+00 -1.0522247564658668e+04 2.8360575441624504e+04 -5.7322639806284769e+01 6.4500812490383396e+01 -1.0050575149136421e+01 -2.0573563174449038e+04 -7.0180667215461326e+03 1.6278042549798731e+04 -3.4967338678325177e-01 -1.4941688225169200e+03 -1.2628634919671342e+04 3.0166033139172214e+02 -2.6205094766377442e+01 -4.7375930067428271e+00 4.1584318958365175e+03 3.1233126731598163e+03 -5.3197267725702295e+03 -4.9189643591298591e+00 9.5731610827508121e+03 -2.4328759528945666e+03 -2.3246814537269215e+03 2.4899680448605250e+02 -5.9220228121407672e+00 1.0824510759411613e+04 6.6372643290314591e+02 -7.1988754522707313e+02 1.4647577944937439e+01 -1.7629906334463035e+05 7.9499872352544346e+05 9.2027488696691216e+02 -4.3291671967535315e+01 7.6854437391684769e+00 -1.7943630764657253e+04 -1.5462159381221934e+04 4.8382585554894176e+03 1.1674677667258948e+02 2.2489007797867434e+03 1.3615095099981654e+03 -2.1515227501336485e+03 1.3908088168289978e+03 -3.6152978094868740e+02 -3.9230728804055616e+03 5.9614385271133797e+03 -3.9308406740985811e+03 3.3912341449208761e+05 
      </Row>
      <Row Index="39">
        -2.9585894102326620e+00 -3.0719220849806334e+01 -8.1383534856157075e+02 6.3252707009036627e+01 -2.5221149048709890e-01 -2.6294731823544915e+00 1.0155856701088803e+03 3.1172636664787859e+02 -9.6780588695919312e+02 3.3590075209053794e-01 2.7080966576724853e+02 -8.5151151964396286e+02 4.4191696838081228e+01 1.6573211004176471e+00 -1.5106442376929738e+00 3.6006930525254450e+02 -6.5349751279430961e+01 -5.1098238877629637e+02 -1.1637503668376645e+00 -2.3546261104900992e+02 3.2854915595209150e+01 2.2277349748016206e+01 1.3210782922707214e+00 -1.5791007478254073e+00 1.4131023707667117e+02 8.9245282872328374e+01 -1.7765913999011292e+02 3.3860142457341844e+00 3.6982845098827909e+02 -3.3302736466707211e+02 -9.0577743181194364e+01 -4.2691237159909825e+00 5.8222978301766721e+00 4.3160752003115516e+02 -7.2593225474992593e+01 -3.0357863215927227e+02 -5.2474739486848110e-01 -3.5538274650425649e+02 9.2027487669277286e+02 4.1667803348766355e+01 1.1666703561716645e+00 -1.7029840851554559e+00 6.1026823654022650e+01 3.9562472881952615e+01 -1.8033478456539547e+02 -5.3429847806242492e-01 -1.2298537953230381e+02 -1.3356853106573269e+02 1.7715152999711700e+02 4.6581016539173106e+01 2.3637724797776457e+01 3.4267760291596808e+01 -5.4527331225600449e+01 3.4755024897820476e+01 5.1345430391434843e+02 
      </Row>
      <Row Index="40">
        2.0815899835499607e-01 -2.2120159378155876e+01 -9.7939072614651081e+01 -2.6555438131446705e+00 8.2484835508222254e-01 1.0503894064721178e+00 4.0078047893290801e+01 1.1225301102064364e+02 2.0647371892233334e+01 -6.4780942321025492e-02 -1.9799028938667824e+01 9.8491469891961003e+01 4.0236197142333430e-01 1.3588342070984574e+00 4.0152235056283081e-01 -1.3827435020389169e+01 -7.8420503131716224e+00 1.8897663860764865e+01 7.5711113458852619e-02 4.6570209245803795e+00 -4.6267649504433152e+01 -1.0040664630949814e+00 9.0722503712990599e-01 2.1937235787616083e-01 7.9460913711044023e+00 2.5064029166305271e+01 6.1662531973338606e+00 -3.8766829138125281e-01 3.8731604786669479e+01 -7.6656313392514932e+01 9.1180524753866781e+00 -2.5483155811722158e+00 -4.4151575838029972e-01 5.6218392581051733e+00 -6.3766202218023402e+01 -6.5743832667288871e+01 -1.6373595847110262e-02 1.4215166655120157e+01 -4.3291668279812527e+01 1.1666703722300982e+00 4.5932890520118785e-01 -1.1975462602502762e-02 4.8614487785904387e+01 2.3897364118585045e+01 -4.4135214878324035e+01 1.8394756679626019e+00 -1.2791559116680626e+01 -1.2897534331336997e+01 -3.3721260551411092e-01 2.9624327284603893e+01 1.5411600856814221e+01 2.9198367108564796e+00 6.9022840735855144e+00 2.9624814809072859e+00 5.1870979659544638e+01 
      </Row>
      <Row Index="41">
        4.7301891042698152e-01 -1.2052927066496606e+01 -2.0265512307350228e+01 -2.3263794356008196e+00 2.6388518328088750e-01 9.2327455264707459e-01 7.1255108268381484e+00 2.0525778579296261e+01 6.7720799505822571e+00 -8.3708083112727039e-02 2.1196550173359000e+01 -2.6506424688934743e+01 -2.6921844538076538e+00 3.9856319062570755e-01 4.2381466851824368e-01 -1.0595517078498039e+01 1.4059968581276102e+01 2.8055720419246047e+01 2.2302897104924624e-01 1.7075345144835261e+01 -2.9999405466880873e+01 -1.2717394391818084e+00 1.4599411728203482e-01 3.4220756660270307e-01 3.6495654604915821e+00 4.4512130868131612e+00 3.6934511117022133e+00 -9.2372098087452204e-01 -1.0567204970437245e+01 -2.3945625374618309e+01 5.7857895602444493e+00 -1.4931700170823822e-01 -1.0664125625052887e+00 -1.3257474192574414e+01 3.6133116260894926e-01 -8.3795154924010493e+00 1.0536371537822149e-01 1.6112392506090345e+01 7.6854455937930410e+00 -1.7029840801018272e+00 -1.1975460542622033e-02 2.0494842759937293e-01 -1.0162562127220518e+01 -5.7341764320759392e+00 1.4855715673949593e+01 2.1221912666285574e+00 -7.7800214504437246e+00 -6.1768189305570580e+00 3.5416107563534993e+00 6.7430622206540560e+00 5.7264795940225000e+00 5.7704744651880180e+00 -5.4810367511257736e+00 5.7742464406929468e+00 4.6007423544060169e+00 
      </Row>
      <Row Index="42">
        1.0939008658060629e+01 2.3783393685311753e+03 2.9891123265397349e+04 -9.7356708780940494e+02 3.4924112021815040e+02 -3.2736262342041528e+01 -1.7227572386056476e+04 -6.7054864678598806e+03 1.9411353287544029e+04 -1.2519064370606429e+01 2.2852583415947502e+03 -1.7645350473967555e+03 -6.1248566369442585e+01 -1.6440609328728533e+02 7.3820607542637617e+00 1.4128081616387601e+04 3.6837604609408281e+03 -1.0530088529564258e+04 1.1311159341724988e+00 -4.1607225703676504e+03 3.0016371553242076e+04 -2.5602098148808034e+02 1.8649667015904981e+01 -1.5356526543518157e+01 -3.7570858109934802e+03 -5.0474294354082667e+03 3.7192509190581045e+03 2.6021045216961625e-01 -1.8997229697508348e+04 2.4062601164863445e+04 1.7120595293784993e+03 -3.1843004833405695e+02 7.6021188872293692e+01 -3.0842013216737272e+04 -3.5237377709394259e+03 2.2549541841408536e+04 -3.1337054243102074e+00 6.0138695285430585e+03 -1.7943627757684520e+04 6.1026843596689901e+01 4.8614487610041174e+01 -1.0162563555041729e+01 4.5925464028123759e+04 2.2427733066116511e+04 -3.9173538525249234e+04 5.6976696562434881e+01 5.2569712856104670e+03 5.3584463158424069e+03 3.6701721533195669e+03 -3.2795515993047520e+03 -6.5059241987374207e+01 -3.3774180074808460e+03 -3.6922461261089211e+02 -2.8894963442625085e+03 4.9217289600288030e+04 
      </Row>
      <Row Index="43">
        1.9200806539229234e+00 5.4398283449293613e+03 1.4261275954721968e+04 -2.8705026560746916e+02 2.5875753884975950e+02 -1.1266354166789945e+02 -2.5520529950984121e+04 -9.0074625487271551e+03 2.3359846079425792e+04 -7.0630333705466910e+00 -2.9540317047116423e+03 -1.8848668340913780e+04 -9.6053176736697736e+01 -8.7579466445233265e+01 2.0302448644361021e+01 2.4323689764242044e+04 1.3330191952031722e+04 -1.8374785424570044e+04 5.2517997786435444e+00 6.8670670391376780e+02 1.6809128260741541e+04 -8.2865152124252290e+01 -8.9831327333664035e+00 -4.3802518831713542e+00 -6.3075451303189448e+03 -4.8439786214160304e+03 5.7802403249412437e+03 -1.6938029549266659e+01 -6.3489760134949465e+03 1.1776038872000601e+04 -4.6406787201021075e+01 -1.6922908671212633e+02 8.0360532005075527e+01 -2.6917190043350180e+04 1.5398455131255457e+02 2.5815242434121166e+04 -2.8516540110351301e+00 3.3683983900082385e+03 -1.5462156188549467e+04 3.9562490689520132e+01 2.3897364969981375e+01 -5.7341769933092053e+00 2.2427733142269662e+04 1.5163873546062869e+04 -1.7455788177532246e+04 1.2451881962713742e+02 1.3489692926258047e+03 1.5803320264992669e+03 1.6865619345531013e+03 -2.7164237247122765e+03 -1.2095378643180254e+03 3.5828259256061187e+02 -2.4779432273490461e+03 3.5496940655486469e+02 2.5838632679076414e+04 
      </Row>
      <Row Index="44">
        2.7161634007206885e+00 -1.5787983961856703e+03 -2.2376831694661760e+04 8.6396210370219796e+02 -2.5640667222824425e+02 2.4297339531622491e+01 8.3390242937814637e+03 2.9407278385788122e+03 -1.1427563680555832e+04 8.8995986785052992e+00 -3.6832445781223732e+03 1.0835062114222592e+02 -1.7957960508922176e+02 1.3177884713661945e+02 8.2870918907061224e+00 -7.9252959291298948e+03 1.1029487880768870e+03 7.4622571751834075e+03 5.3063522666319329e+00 5.6520188601186364e+03 -2.3678445698670508e+04 1.6724041289914979e+02 -2.6399699946388509e+01 2.5368937582052837e+01 1.0702170362460026e+03 2.7884262611415411e+03 -9.5733536170165496e+02 -1.8931012419038005e+01 1.4705971950542269e+04 -1.8820582918968772e+04 -1.6160856781682053e+03 2.7206625432672695e+02 -8.4920016317362794e+01 1.6013606772854146e+04 3.6745992161503659e+03 -9.2141045689922867e+03 3.4308711054959389e+00 -2.0379007164478116e+03 4.8382566809636783e+03 -1.8033479801255652e+02 -4.4135214254489775e+01 1.4855716931265150e+01 -3.9173538292096964e+04 -1.7455787933802872e+04 3.4871361753514262e+04 -1.3971686342701787e+01 -4.2257330647142271e+03 -4.2191696214745425e+03 -1.9290988622148907e+03 2.2558516356875098e+03 -1.9192101681468827e+02 3.2005482359659663e+03 -6.2858357450244057e+01 3.6646389865028614e+03 -4.5263516120275257e+04 
      </Row>
      <Row Index="45">
        1.1424700062592905e+01 -8.0127352416324902e+02 9.9077024726608954e+02 2.2169270465399052e+01 3.4470856179574561e+01 -1.1378265683931820e+01 -9.7833460494055103e+01 7.6162537093473543e+02 4.5391811518487009e+02 -3.0378473780958146e+01 -6.2723183012336835e+02 1.4057129999920417e+03 -4.8029556001561552e+01 8.4256624294123021e+00 2.8191414022912500e+01 3.4909402323684077e+02 5.4264753892122951e+02 1.5629279578619818e+02 1.1666286908091339e+01 2.9893915137509839e+02 5.3259590093199790e+01 -2.7178298605728388e+00 9.4123441510625501e+00 -1.6856123223017780e+00 -1.0319660361375476e+02 -3.6400420689818922e+01 1.7771007973465717e+02 -7.4620151905958281e+01 -1.3947240408545620e+03 6.8528652991842932e+02 1.1615485274692274e+02 -3.5219683397351673e+01 3.4670290849874078e+01 -7.0217913357194084e+02 -4.1754422634521495e+02 -1.1016509247562772e+02 3.3078093178380099e+00 2.3146397800041484e+01 1.1674688133444070e+02 -5.3429814673000386e-01 1.8394757152795898e+00 2.1221912598232229e+00 5.6976720111294917e+01 1.2451882314223266e+02 -1.3971711633797137e+01 4.4645853410557322e+02 2.0302551606756339e+02 2.0381541004305171e+02 -2.4611978586487339e+01 1.5475408057544817e+02 -9.2834176526911662e+01 -1.7015081531619265e+02 2.0484520157077236e+02 -1.7119812673505567e+02 3.7265109934568977e+02 
      </Row>
      <Row Index="46">
        4.1695751467577793e+00 -9.2722842236042616e+03 -2.3661277267856152e+04 3.9858775978500953e+03 -7.0297106326038531e+01 1.1925452278227641e+02 -2.1970227234254093e+04 1.4685984532387989e+04 6.6057951750408038e+03 -2.0831415311638239e+01 -1.1433424634716512e+04 -3.4731672689632760e+04 -9.6882386662073338e+02 -5.7436301947884942e+01 -1.3772087624881046e+01 -2.6316228300321651e+04 -1.0024641142001577e+04 1.7592720504338948e+04 3.6620457486743589e+00 9.8415771414769406e+03 -1.4300126322411958e+04 1.1057300984101282e+03 -3.9074260390827568e+01 9.0958781932629051e-01 -2.9907881941452065e+03 8.0546272469041551e+03 1.8401210005739363e+03 -3.0119712188611647e+01 -3.2531056671935337e+04 -3.8251895040281270e+04 -5.7509523325551254e+03 1.2373814955405761e+02 -2.4056440162893246e+01 -8.6450855688904958e+03 -5.0752679362235467e+04 1.6587617119643652e+04 -2.5366212340111698e+00 -2.3251937836927732e+03 2.2489005517607575e+03 -1.2298538117778570e+02 -1.2791558944323484e+01 -7.7800218987174219e+00 5.2569715370301365e+03 1.3489695471400642e+03 -4.2257333086560429e+03 2.0302551228004245e+02 9.8575887473951839e+05 -1.0198741972467918e+04 1.4682646640285686e+04 -1.1922426615728450e+03 1.6775184312211968e+03 1.7642547114936024e+04 -1.5186841447861685e+04 1.7648295101041556e+04 -1.2909166907662352e+03 
      </Row>
      <Row Index="47">
        8.4505832121590174e+00 -5.0546348784875790e+03 -2.0931947990452398e+04 1.7780237823467146e+03 -4.9355587689158135e+01 1.2219420629955890e+02 -1.4458663584239639e+04 6.2739203482713674e+03 9.1866228585774134e+03 -1.9422994455474281e+01 -2.3472731256325606e+03 -2.5458547979433275e+04 -5.6693542949603443e+02 -5.7198441855945219e+01 -7.6865631565735519e+00 -1.9861173444842090e+04 -6.5379368244464104e+03 1.5155171590557467e+04 5.5515493555324156e+00 7.6188561118762264e+03 -1.4905668460105084e+04 4.1837013374017465e+02 -4.3559156797809052e+01 5.9561941514381260e+00 -1.5506551538722326e+03 4.7444244115206429e+03 2.2708875141215176e+03 -3.6086903040648565e+01 -1.5046398417390090e+04 -2.8479924137585469e+04 -1.9423059251881045e+03 1.1650337895732639e+02 -3.2965890358579720e+01 -1.1960438553793138e+04 -3.4110136956983391e+04 7.1089899035064736e+03 -1.8660154149513257e+00 -1.3872677515924265e+03 1.3615097804227421e+03 -1.3356853199061504e+02 -1.2897536211457838e+01 -6.1768191325091095e+00 5.3584455498027528e+03 1.5803318798497064e+03 -4.2191688941487300e+03 2.0381540642987355e+02 -1.0198742363837344e+04 9.9224980097178160e+05 8.4215580899166798e+03 -1.3035362169541484e+03 1.6797553025807229e+03 1.1388952637326418e+04 -1.0028334304658421e+04 1.1397478611638478e+04 5.1684334470333579e+02 
      </Row>
      <Row Index="48">
        -3.5568205530929390e+01 -1.5601004932565684e+04 -6.9007298264792607e+03 1.6800358440784094e+04 6.6119241106596633e+01 -4.3241895961526922e+01 5.4815450614841560e+04 -3.7021777192830130e+04 6.3287234231887473e+04 7.9274929858486303e+00 4.2399415871674319e+04 3.2050347919677337e+04 3.8252250161834559e+03 -7.4618369077786042e+00 1.1008331630375849e+01 2.4234375234506027e+04 1.5922670919779934e+04 5.0458421628705746e+03 -1.0379040589558500e+01 -1.6979716436600105e+04 2.1396795320194578e+03 2.5014019745303508e+03 -1.6296579454108482e+01 4.6038941789554428e+00 1.6519338801392729e+04 -1.3288806574214508e+04 5.6141108684456640e+03 4.1613254200788070e+01 5.5332223909592860e+04 3.1224624300623276e+04 -1.2508237378075602e+04 -1.8884747841218221e+01 2.9496555864846528e+00 -5.4757420767606527e+04 7.9192457988462120e+04 -6.1777760047257500e+04 -5.6309714376578235e-01 6.3298636151879668e+02 -2.1515276187090140e+03 1.7715152343691034e+02 -3.3720809335071233e-01 3.5416099403506376e+00 3.6701757974298212e+03 1.6865637823419218e+03 -1.9291019680951954e+03 -2.4611954894187704e+01 1.4682647191117665e+04 8.4215588742391483e+03 9.6326724875363766e+05 -5.0811349058624546e+02 -5.1300017552568761e+02 -2.8669237126530054e+04 2.2104239659150022e+04 -2.8607437225328293e+04 5.7956760199644959e+03 
      </Row>
      <Row Index="49">
        3.1762955296020209e+01 -4.7773496843830781e+03 -1.1433568323767064e+04 -3.5915493977351638e+01 -2.6948789237167247e+01 1.6307680702044345e+02 8.3827536090160611e+03 1.1758439712872852e+04 -3.4755297083550045e+03 -4.5999577459539296e+00 -1.5689063195724211e+03 1.3302017944157171e+04 -5.9612227543608498e+01 1.6793048867322412e+02 3.7762417796524531e+01 -8.3505623954383846e+03 -3.3004413072853404e+03 7.8293568610879429e+03 1.2065730687425280e+01 5.5028202749550280e+02 -9.0693216465751320e+03 -3.4025013261647430e+01 7.6331802115627795e+01 3.3171991462289945e+01 1.9700454739318761e+03 3.2483542882730017e+03 -8.0763097287122037e+02 -5.3058532270549186e+01 4.4592821876884054e+03 -8.9960527612621190e+03 7.5750367216319000e+02 -1.4112894802731557e+02 -1.0297461859742553e+02 7.1259769727950106e+03 -5.1644076733695656e+03 -1.1702151177798576e+04 2.8532325138786039e+00 2.8528495694379160e+01 1.3908082424408824e+03 4.6581012771740369e+01 2.9624327083282150e+01 6.7430622401514251e+00 -3.2795515870275863e+03 -2.7164237740946551e+03 2.2558516427666814e+03 1.5475407865855465e+02 -1.1922426045444208e+03 -1.3035361283621985e+03 -5.0811329314065006e+02 3.7142576056847593e+03 2.0168383064142040e+03 -1.6868002934512515e+02 1.4996321532596219e+03 -1.5742054023308447e+02 -4.1694711468022715e+03 
      </Row>
      <Row Index="50">
        3.8712841702442347e+01 -1.8954297955805974e+04 4.6759044185820076e+03 1.8277653702824623e+03 1.3543287979888952e+00 3.9888461816596299e+02 3.0823770382460216e+03 -5.5713390680715411e+03 -1.5511728805065826e+04 1.1334149952832576e+01 5.4876486120380196e+03 3.0924949060063445e+03 -5.3915390477575022e+02 1.0012511596658365e+02 1.6917814677179038e+01 -8.9270915475668990e+03 -1.1751679394641942e+03 1.1465049848969153e+04 1.2859136725192016e+01 -1.4035614839213865e+03 5.7043914289596228e+02 4.0656631130816186e+02 3.1527236680344320e+01 5.7449129620365539e+01 -5.3220395803280110e+02 -2.0668514659851662e+03 -1.9891407918610394e+03 -2.5611677825107908e+01 -1.4259626499680853e+04 3.9120011393315249e+03 -7.2151837632061734e+02 -5.8365207400368774e+01 -2.2743575451972956e+02 9.1951531284266221e+03 1.0888863212564402e+04 -4.3178681148767009e+03 2.0381026023611790e+00 2.0193581645974853e+03 -3.6153010875357108e+02 2.3637720113533703e+01 1.5411600278504814e+01 5.7264795262999026e+00 -6.5059128157368320e+01 -1.2095377230691408e+03 -1.9192104412691350e+02 -9.2834178932871012e+01 1.6775185499149732e+03 1.6797554024054207e+03 -5.1300019044403189e+02 2.0168382288675452e+03 5.3292288434917637e+03 -9.3691713488040477e+02 7.2182892841051807e+02 -9.4948099927097792e+02 1.5279486776801579e+02 
      </Row>
      <Row Index="51">
        -1.5123096667512073e+00 -2.2941879847413107e+04 5.4336628717869899e+03 -8.3845009872985502e+03 8.9671786934539767e+01 -6.5370523724517255e+01 4.4022273560366404e+04 -3.4401585622331680e+04 2.3189193777783581e+04 1.9186773823657404e+01 2.1240734349115923e+04 4.2228149855480689e+04 1.6911598408711316e+03 1.0378228331557011e+01 1.8979275376807230e+01 3.4740970830053302e+04 1.6770766983686019e+04 -2.4663946308607239e+04 -3.0188633314833737e+00 -1.5768576769929728e+04 5.4195798242137807e+03 -2.4444347107861031e+03 -1.3120310419363790e+00 3.0448437694827817e+00 9.9626162724989827e+03 -1.3530678247555081e+04 4.3037235839554314e+03 2.5611688195912468e+01 4.5375014037480796e+04 3.9644640972646419e+04 1.2691599508282843e+04 -5.9466930565538490e+01 2.3867603641955419e+00 -2.3818844916465354e+04 7.6671532311303323e+04 -4.9971893777099489e+04 1.3467774750756760e+00 2.9365114537611871e+03 -3.9230680657682187e+03 3.4267773388530912e+01 2.9198387347936592e+00 5.7704747767611586e+00 -3.3774172724287350e+03 3.5828232743152842e+02 3.2005472622624070e+03 -1.7015082433196585e+02 1.7642546850402818e+04 1.1388952350888763e+04 -2.8669236225465549e+04 -1.6867983907810685e+02 -9.3691663288619566e+02 9.7080333680884400e+05 2.3847148938191680e+04 -2.9146067538848147e+04 6.2029123737388063e+03 
      </Row>
      <Row Index="52">
        8.8034202101844130e+00 1.8119115865113279e+04 -6.1922987943134103e+03 7.8615240537872278e+03 -1.1787070751195395e+02 5.0451227975239824e+01 -3.4504473977326401e+04 2.8679946367035849e+04 -1.1537232127469862e+04 -2.1352091472052052e+01 -2.1922895485390760e+04 -4.5990846046770603e+04 -1.6835633757663754e+03 3.0123962504828228e+01 -1.4743093092120532e+01 -3.4428998164819786e+04 -2.5659671361350254e+04 2.4254736073096719e+04 4.7463932711971779e+00 1.3451601696769238e+04 -2.5216333758062792e+03 2.3113417222181342e+03 2.9676119213286697e+01 -3.0312237257444110e+00 -8.1928690088049407e+03 9.5985214097604839e+03 -1.4473465584283147e+02 -3.7747391036155520e+01 -3.5564834567124111e+04 -3.2736256954528035e+04 -1.2032049139379969e+04 1.9431496754432960e+01 6.8739158072627298e+00 5.9913564331464058e+03 -5.0042192071141646e+04 3.4550330061011329e+04 -9.1904406085852841e-01 -4.2306293254877191e+03 5.9614405457586599e+03 -5.4527339755246629e+01 6.9022824194469479e+00 -5.4810371461578065e+00 -3.6922479514764768e+02 -2.4779429284669709e+03 -6.2858047180835797e+01 2.0484520189362092e+02 -1.5186840797546805e+04 -1.0028334024569667e+04 2.2104238878472188e+04 1.4996319660021745e+03 7.2182857628715988e+02 2.3847148205787034e+04 9.7932186545917322e+05 2.3823812938292976e+04 -1.0962828365061294e+04 
      </Row>
      <Row Index="53">
        -1.6680249087312404e+00 -2.2813831141803919e+04 5.5149134494740501e+03 -8.4151175686792049e+03 8.8986919641444615e+01 -6.6122311913441450e+01 4.3547041717969485e+04 -3.4150261843799097e+04 2.2642285729796364e+04 1.9275579204010228e+01 2.1255322461932374e+04 4.2312614797472168e+04 1.6986693759418165e+03 1.0592999115804218e+01 1.8822940962477688e+01 3.6772622795187410e+04 1.6734917273372121e+04 -2.2579870241014571e+04 -3.1016230740827382e+00 -1.5794200114163412e+04 5.4562232489828566e+03 -2.4527383607739675e+03 -1.0702771702744940e+00 2.8963661014030038e+00 9.5553139502702379e+03 -1.3472611764370744e+04 3.8666447224316230e+03 2.5873887481212428e+01 4.5362021114391318e+04 3.9672541961373470e+04 1.2738350468926667e+04 -5.9533029827782535e+01 2.6135601288871690e+00 -2.3574746052802704e+04 7.6409658940268870e+04 -4.9915475508598764e+04 1.3523083887352598e+00 2.9387788392008879e+03 -3.9308402234154546e+03 3.4755053309388529e+01 2.9624870206992315e+00 5.7742458779660240e+00 -2.8894927681516942e+03 3.5497057370994958e+02 3.6646356247904469e+03 -1.7119812551699783e+02 1.7648295300495538e+04 1.1397478774029967e+04 -2.8607436049074171e+04 -1.5742054346429359e+02 -9.4948063901065711e+02 -2.9146067094629925e+04 2.3823813797941777e+04 9.7089432089674589e+05 6.2011848264662931e+03 
      </Row>
      <Row Index="54">
        -7.4362731123634148e+01 5.7587907586076617e+03 2.4324354790075449e+04 -8.1535677536419189e+02 4.1547814381774879e+02 2.4439392299369729e+01 -1.2726530315468335e+04 -1.9616143195325829e+04 8.9082703224073812e+03 -2.4181515106320148e+01 2.4626572225681914e+04 -6.5588512863763288e+04 2.9754399934411686e+02 -1.7870659871551470e+02 6.2279097673672368e+00 3.8810442641817965e+04 1.4110583110252022e+04 -3.0708815402436885e+04 -1.4638997078782268e+01 -4.4621407301381259e+03 2.9169306460303254e+04 -3.1498042499626536e+02 1.9191976731235627e+01 -2.7535860288044205e+00 -1.9319014493839459e+03 -6.9750494019759644e+03 1.2309286637736022e+03 3.2216009570495316e+01 -3.4234270676858832e+04 1.7572167089880735e+04 1.4058542976937013e+03 -3.4146799612870177e+02 -1.7628405759056250e+01 -1.1181716160284592e+04 1.7891739673005992e+04 8.3865933303374386e+03 -1.7989083072966423e+00 -6.4060926969038228e+04 3.3912342155626492e+05 5.1345434169884720e+02 5.1870979339296767e+01 4.6007397700714137e+00 4.9217288544247727e+04 2.5838630951132036e+04 -4.5263516021356772e+04 3.7265102200555702e+02 -1.2909170106701558e+03 5.1684414741699584e+02 5.7956737387797330e+03 -4.1694707403291832e+03 1.5279504673627525e+02 6.2029086904353026e+03 -1.0962828618393745e+04 6.2011795569200476e+03 2.4113144005565273e+05 
      </Row>
    </InverseHessian>
  </Weights>
</MethodSetup>
